tree
version=v4
num_class=1
num_tree_per_iteration=1
label_index=0
max_feature_idx=19
objective=binary sigmoid:1
feature_names=drainage_density dist_to_mountain_m dist_to_river_m mean_elev_m mean_slope_deg drainage_density_m tri twi curv_plan curv_prof clay_0_5cm ph_h2o_0_5cm soc_0_5cm PC1 PC2 PC3 PC4 PC5 PC6 PC7
feature_infos=[0:0.60257335819650915] [0:7.1025762249145199] [0.026257703234620944:14608.186823018927] [-0.81704260651629068:349.96432098765433] [0:89.999374389648438] [0:42975.480424324509] [0:80.777778625488281] [4.0918952684386933e-11:1.9810014688661917] [-16.52783203125:13.1943359375] [0:79.08642578125] [4.2000000000000002:61.100000000000001] [36:80] [42:2355] [-55.342815399169922:73.464935302734375] [-30.743719100952148:44.493595123291016] [-30.769275665283203:27.264715194702148] [-19.494121551513672:48.528697967529297] [-26.93115234375:20.932950973510742] [-11.39820671081543:45.271396636962891] [-13.773741722106934:26.196144104003906]
tree_sizes=3413 3392 3421 3423 3422 3403 3415 3426 3435 3406 3422 3430 3435 3438 3433 3421 3421 3440 3413 3440 3457 3427 3438 3450 3427 3420 3429 3463 3412 3430 3431 3447 3424 3424 3451 3468 3316 3312 3412 3397 3432 3445 3412 3370 3436 3403 3388 3420 3426 3405 3432 3403 3447 3456 3392 3367 3396 3406 3400 3423 3408 3359 3371 3395 3409 3382 3395 3412 3335 3408 3411 3328 3414 3318 3400 3303 3431 3318 3363 3015 3380 3439 3331 3370 3375 3405 3351 3344 3375 3426 3317 3400 3405 3435 3375 3417 3347 3318 3309 3397 3423 3241 3387 3391 3407 3323 3389 3393 3371 3424 3250 3331 3363 3302 3328 3426 3434 3414 3350 3297 3300 3385 3287 3259 3388 3399 3405 3379 3307 3341 3281 3399 3414 3266 3410 3360 3353 3435 3381 3371 3355 3434 3342 3382 3377 3293 3422 3393 3404 3348

Tree=0
num_leaves=31
num_cat=0
split_feature=1 12 6 11 12 11 11 1 10 1 9 1 1 1 10 10 10 12 1 8 1 11 9 9 10 10 11 12 12 1
split_gain=4335.07 2893.98 1039.78 911.168 667.531 532.459 449.927 375.741 391.749 264.591 211.803 200.163 195.691 190.152 138.755 155.787 137.623 122.327 121.168 119.306 102.706 101.494 101.464 99.9535 94.0085 93.5661 92.3968 88.9003 76.7251 73.7889
threshold=1.1666795199102487 349.50000000000006 1.0000000180025095e-35 51.500000000000007 268.50000000000006 41.500000000000007 45.500000000000007 2.4127585509043699 26.350000000000005 0.45618894148480232 0.51851835846900951 0.97496099999999786 3.4518991440432867 0.14999399999998178 32.550000000000004 14.550000000000002 25.550000000000004 290.50000000000006 4.500132465802495 -0.027778148651123043 0.47432267535930872 53.500000000000007 0.51851835846900951 2.2469139099121098 31.450000000000003 30.650000000000002 48.500000000000007 285.50000000000006 210.50000000000003 1.3520276450298672
decision_type=2 8 2 8 10 10 8 2 10 2 2 2 2 2 10 10 10 10 2 2 2 10 2 2 10 10 10 10 10 2
left_child=3 2 5 4 13 7 24 -2 -9 19 12 21 -8 26 15 -11 -15 -4 27 23 -17 -5 28 25 -3 -6 -1 -10 -18 -7
right_child=1 6 17 11 9 29 10 8 18 14 -12 -13 -14 16 -16 20 22 -19 -20 -21 -22 -23 -24 -25 -26 -27 -28 -29 -30 -31
leaf_value=-0.75787747250631343 -0.77276053916222043 -0.74651887335943212 -0.58650494270494835 -0.74482294166050367 -0.70754257440913049 -0.55623442574131143 -0.49357023266161004 -0.76705114887524684 -0.42375652737521019 -0.44780304534622378 -0.67040760234277152 -0.63409206109509897 -0.73094879006267044 -0.52563697272381293 -0.58628207973926094 -0.50698116833831486 -0.54608835350375362 -0.6995437692084292 -0.66343471973986345 -0.75122666230202528 -0.7037875045367743 -0.80929579452899736 -0.58028255572279652 -0.72608542211278548 -0.66964552829873036 -0.5403494726438357 -0.60996022759342006 -0.53435547273883488 -0.79072960039683071 -0.42241341600798032
leaf_weight=79.333333924412727 62.222222685813904 481.77778136730194 241.55555735528469 426.66666984558105 56.888889312744141 48.666667029261589 209.1111126691103 52.222222611308098 234.22222396731377 26.444444641470909 204.22222374379635 97.777778506278992 40.444444745779037 407.33333636820316 230.44444616138935 27.11111131310463 16.00000011920929 155.33333449065685 33.777778029441833 717.55556090176105 465.77778124809265 603.11111560463905 147.55555665493011 177.11111243069172 234.44444619119167 76.444445013999939 87.555556207895279 122.22222313284874 49.555555924773216 1584.4444562494755
leaf_count=324 259 1936 776 1711 218 148 574 216 561 65 742 337 160 1185 740 75 47 588 121 2900 1772 2613 469 694 851 227 291 360 211 3795
internal_value=-0.618171 -0.541757 -0.481723 -0.694826 -0.66192 -0.454117 -0.671969 -0.544828 -0.512441 -0.695827 -0.594124 -0.769735 -0.532438 -0.585325 -0.650747 -0.679694 -0.559856 -0.630902 -0.478009 -0.728813 -0.69281 -0.782756 -0.626204 -0.677307 -0.721218 -0.612006 -0.680837 -0.46085 -0.728206 -0.426254
internal_weight=7397.33 3704.67 2534.67 3692.67 2565.11 2137.78 1170 504.667 442.444 1777.78 453.778 1127.56 249.556 787.333 749.778 519.333 620.444 396.889 390.222 1028 492.889 1029.78 213.111 310.444 716.222 133.333 166.889 356.444 65.5556 1633.11
internal_count=24966 11087 6824 13879 9218 5460 4263 1517 1258 6691 1476 4661 734 2527 2652 1912 1912 1364 1042 4039 1847 4324 727 1139 2787 445 615 921 258 3943
is_linear=0
shrinkage=1


Tree=1
num_leaves=31
num_cat=0
split_feature=1 3 6 1 4 1 3 1 3 2 10 6 10 3 1 6 10 5 3 1 10 3 3 9 1 1 10 6 3 0
split_gain=3282.81 3563.86 672.777 290.101 167.996 162.892 178.065 132.265 131.193 121.2 144.328 100.112 95.8398 96.2926 99.1435 85.4905 316.716 113.693 87.3793 84.6447 75.7237 69.1061 65.3577 60.8862 58.5152 51.6916 95.7159 94.0084 48.8095 46.4271
threshold=1.1249549999999902 127.69469135802471 1.0000000180025095e-35 0.10606177453729852 89.987167358398452 1.8154851432259 170.03296296296301 1.2749489999999994 42.357592592592603 2501.7230927348605 14.550000000000002 8.7222223281860369 25.850000000000005 106.37814814814816 4.5968939931015402 0.27777778357267385 22.250000000000004 20311.028354793638 191.78308641975312 4.4018830948816641 20.650000000000002 141.66932098765434 139.75524691358027 0.71604931354522716 0.29998799999999642 0.90619219888167091 29.350000000000005 3.5000000000000004 143.32876543209878 0.08527200886438778
decision_type=2 2 2 2 2 2 2 2 2 2 8 2 8 2 2 2 8 2 2 2 8 2 2 2 2 2 8 2 2 2
left_child=3 8 7 29 9 6 22 20 -2 10 -5 15 -10 -14 -15 16 18 -18 -6 -9 -3 -11 -4 -17 -23 27 -27 -25 -21 -1
right_child=1 2 5 4 11 -7 -8 19 12 21 -12 -13 13 14 -16 23 17 -19 -20 28 -22 24 -24 25 -26 26 -28 -29 -30 -31
leaf_value=-0.084253814017022088 0.044963353687713627 0.21343109103652283 0.0060395933509054351 0.18979089503519839 -0.049085291341299922 -0.06870335876764716 -0.036807919448909938 0.22126256475878373 -0.087362782058971869 -0.087097879436916548 0.0043517054377607235 -0.058235859349688557 -0.031216685613372153 0.076003478683128067 -0.13221252493007146 0.15279171778124306 -0.063608934924014954 0.12337758367260328 0.19914920876348235 -0.089901621997150016 -0.073569173654291484 -0.077026671329706239 0.16608663641725341 0.074250945176735833 0.010845503376540576 -0.024258869421198238 0.18516360445076452 -0.018268419484714877 0.16550769724699738 -0.035628107021795745
leaf_weight=310.92982016503811 360.67992654442787 13.184385210275648 30.981999069452286 43.095983549952507 15.678045392036436 68.531299278140068 69.876928523182869 2208.6565416455269 198.9302314966917 232.1290116161108 905.98371030390263 91.781716972589493 543.57952888309956 177.67709358036518 24.99935856461525 80.840881034731865 260.23120403289795 35.900081604719162 89.296971842646599 13.418912559747698 24.663824811577797 108.50237733125687 192.61595977842808 359.3774676322937 241.02402226626873 29.445348367094994 73.463155850768089 155.2527177631855 14.135880351066588 572.22616851329803
leaf_count=1332 1246 31 113 107 65 282 275 5034 839 991 3371 375 2096 586 112 227 1074 113 230 58 100 457 541 1186 885 114 197 597 38 2294
internal_value=0.0657937 0.128855 0.195758 -0.003147 0.0129841 0.0684956 0.100998 0.215934 -0.00616853 -0.00887806 0.0130683 0.0411439 -0.0258129 -0.00917668 0.0493068 0.049576 0.0124343 -0.040265 0.161018 0.219078 0.0267534 -0.0448203 0.144481 0.0707167 -0.016289 0.059581 0.124622 0.0461646 0.0388313 -0.0529366
internal_weight=7547.09 3941.93 2636.07 3605.16 2722 362.006 293.475 2274.06 1305.87 1530.74 949.08 1191.27 945.186 746.256 202.676 1099.49 401.106 296.131 104.975 2236.21 37.8482 581.655 223.598 698.38 349.526 617.539 102.909 514.63 27.5548 883.156
internal_count=24966 11351 6472 13615 9989 1211 929 5261 4879 5811 3478 4178 3633 2794 698 3803 1482 1187 295 5130 131 2333 654 2321 1342 2094 311 1783 96 3626
is_linear=0
shrinkage=0.1


Tree=2
num_leaves=31
num_cat=0
split_feature=11 12 3 3 9 10 11 3 3 3 3 10 11 12 3 12 3 9 12 0 9 10 10 17 11 9 10 4 3 9
split_gain=1747.84 1763.12 911.988 1255.83 352.907 343.313 341.446 155.667 270.291 151.248 142.473 139.398 241.024 130.551 148.131 129.126 111.122 96.168 95.5395 87.8507 86.8523 123.116 83.4236 77.5171 76.9106 74.3937 71.4508 71.3015 70.2969 68.8714
threshold=51.500000000000007 346.50000000000006 221.26814814814819 127.69469135802471 0.51851835846900951 22.450000000000003 54.500000000000007 189.98370370370375 139.75524691358027 40.567037037037046 294.3424691358025 33.550000000000004 47.500000000000007 421.50000000000006 205.29981481481482 255.50000000000003 152.75981481481486 1.0000000180025095e-35 477.50000000000006 0.2205771739013255 0.51851835846900951 28.350000000000005 25.750000000000004 5.1095175743103036 47.500000000000007 2.1851848363876347 28.450000000000003 89.99664688110353 108.53290123456792 0.41975317895412451
decision_type=8 10 2 2 2 10 10 2 2 2 2 10 10 10 2 10 2 2 10 2 2 10 10 2 10 2 8 2 2 2
left_child=1 2 3 22 27 10 7 8 19 -3 17 12 28 14 16 -6 -14 -4 23 -2 -7 -22 -1 -13 -17 -10 -27 -5 -11 -24
right_child=6 9 5 4 15 20 -8 -9 25 11 -12 18 13 -15 -16 24 -18 -19 -20 -21 21 -23 29 -25 -26 26 -28 -29 -30 -31
leaf_value=-0.059916489049607558 -0.063595187661741215 0.074243545232214422 0.19104471566281653 0.18471042004482915 0.14774951947907153 -0.073425881660263023 -0.10740666601932602 -0.069323915179840739 0.036871203189699039 -0.016259651372103025 -0.047620639728254865 -0.064650420273024298 -0.059379874655407484 -0.042402627921285546 -0.050748121356488096 0.081923256129290356 0.17087169312132733 0.028783581085357918 0.091522731556353917 0.040366109834973934 0.082610190566828334 -0.064462483692375269 -0.0058095725276005993 0.071291697283533587 -0.02823868816062311 0.17138509118466369 -0.043284912210527465 -0.038245344616107672 -0.072052266527557182 0.065608288471322856
leaf_weight=125.99522572755814 264.58367715775967 245.94248136878014 143.05148957669735 2306.0620957911015 271.72523754835129 259.22973982989788 508.18196074664593 264.54368913173676 111.15438111126423 376.40447127819061 44.047784090042114 103.4460032582283 23.253755420446396 104.44712717831135 53.4018514752388 244.80025458335876 145.0153503715992 51.521035566926003 198.03001572191715 115.10530273616314 116.31499987840652 109.19020591676235 264.51759220659733 68.812375873327255 83.22122223675251 131.55814747512341 16.341210439801216 13.371245682239531 587.07297912240028 269.62601239979267
leaf_count=515 1088 806 355 5257 744 1106 2304 1133 384 1485 183 415 94 421 221 774 356 179 631 400 379 454 963 215 320 353 66 53 2421 891
internal_value=0.0584649 0.0813039 0.116764 0.137459 0.165621 0.0141747 -0.0419111 -0.00487512 0.0217275 0.00117653 0.112206 -0.00962767 -0.025206 0.0488438 0.0922838 0.0966355 0.138299 0.148958 0.0442792 -0.0317927 -0.0340089 0.0109855 0.0127109 -0.00967015 0.0536696 0.100376 0.146863 0.183366 -0.0503987 0.0301092
internal_weight=7619.97 6208.5 4302.67 3579.32 2919.18 723.355 1411.47 903.286 638.743 1905.83 238.62 1659.88 1289.6 326.118 221.671 599.747 168.269 194.573 370.288 379.689 484.735 225.505 660.139 172.258 328.021 259.054 147.899 2319.43 963.477 534.144
internal_count=24966 19238 12173 9517 7148 2656 5728 3424 2291 7065 717 6259 4998 1092 671 1838 450 534 1261 1488 1939 833 2369 630 1094 803 419 5310 3906 1854
is_linear=0
shrinkage=0.1


Tree=3
num_leaves=31
num_cat=0
split_feature=1 3 12 11 12 1 11 6 3 1 5 3 11 1 12 10 10 11 12 10 3 10 10 11 12 12 12 12 1 5
split_gain=2135.77 2239.28 803.012 635.773 412.281 158.627 152.32 129.904 113.231 108.779 105.813 90.9585 88.5012 328.222 175.797 96.427 80.9755 74.8842 75.8714 130.006 125.612 91.0885 76.0448 64.1983 63.684 59.6482 52.871 52.7325 52.123 50.9593
threshold=1.1249549999999902 127.69469135802471 429.50000000000006 51.500000000000007 237.50000000000003 0.16769839010855062 49.500000000000007 1.0000000180025095e-35 170.66993827160496 5.0298335897405098 13187.360000389928 304.60283950617287 42.500000000000007 2.2895590423459296 349.50000000000006 26.350000000000005 25.850000000000005 47.500000000000007 270.50000000000006 32.45000000000001 162.03314814814817 14.550000000000002 27.950000000000003 47.500000000000007 506.50000000000006 300.50000000000006 192.50000000000003 645.50000000000011 0.68528244743423838 2752.7281992878661
decision_type=2 2 10 8 10 2 10 2 2 2 2 2 8 2 10 10 8 10 10 10 2 10 10 10 10 10 8 8 2 2
left_child=3 6 7 4 11 -6 9 12 25 16 24 26 13 -3 15 -15 -2 18 22 21 -21 -20 -7 -4 -5 -9 -1 -18 -12 -19
right_child=1 2 23 10 5 17 -8 8 -10 -11 28 -13 -14 14 -16 -17 27 29 19 20 -22 -23 -24 -25 -26 -27 -28 -29 -30 -31
leaf_value=-0.10990834200001175 -0.051092157696078659 -0.13389209647178701 -0.097547067910713769 -0.097061325718880265 -0.038831037740986452 0.1315765410729017 -0.1028204473384416 0.15468446550633655 -0.057124607960187694 -0.088881149678884025 -0.039974122913378672 -0.039371651599929738 0.18521187280142257 -0.041837983310270145 -0.12506476270745831 0.17993626577029284 0.014843138559401293 0.054766303917375969 0.15763265808086058 0.11719948270092295 -0.0084114470755127634 -0.017854240205620459 0.0045343159447767947 0.085871731148881553 0.0091634288639787214 0.036348738121155987 0.12648560332484507 0.074702956509004104 0.064151114017952746 -0.035809941854119225
leaf_weight=8.5014403313398343 151.79983165860176 40.077949002385139 129.11693041026592 712.10091584920883 612.34958823025227 139.3964556157589 143.34540048241615 178.12535537779331 38.129273965954781 108.00710916519165 193.26039311289787 36.958973422646523 1767.0951839983463 19.329927027225494 19.802863240242004 479.46016779541969 711.02028815448284 76.858803689479828 30.284650295972824 212.7182794213295 124.40681421756744 525.17364124953747 73.531401962041855 20.989270478487015 59.259207114577293 59.992692187428474 417.06799471378326 187.28353294730186 62.456580206751823 297.14683011174202
leaf_count=36 648 166 556 3300 2521 371 608 451 155 472 815 153 3710 69 84 1021 2545 255 68 613 457 2032 256 63 236 197 1138 606 214 1150
internal_value=0.0523896 0.102096 0.153193 -0.00385349 0.0228348 0.0038756 -0.00591441 0.166177 0.0998735 0.00607224 -0.0702836 0.108172 0.173963 0.137938 0.159355 0.171075 0.016009 0.0216331 0.0347405 0.0217438 0.0706627 -0.00784057 0.0883982 -0.0708394 -0.0887699 0.125565 0.121282 0.0275034 -0.0140021 -0.0168333
internal_weight=7635.05 4053.58 2752.12 3581.47 2554.39 2091.87 1301.46 2602.01 276.247 1158.11 1027.08 462.528 2325.77 558.671 518.593 498.79 1050.1 1479.52 1105.51 892.583 337.125 555.458 212.928 150.106 771.36 238.118 425.569 898.304 255.717 374.006
internal_count=24966 11351 6472 13615 9050 7723 4879 5853 803 4271 4565 1327 5050 1340 1174 1090 3799 5202 3797 3170 1070 2100 627 619 3536 648 1174 3151 1029 1405
is_linear=0
shrinkage=0.1


Tree=4
num_leaves=31
num_cat=0
split_feature=11 3 3 9 11 10 6 10 3 3 3 6 6 7 11 17 10 3 10 11 10 2 5 17 0 8 10 6 10 2
split_gain=1147.53 692.089 895.192 606.129 331.824 225.469 120.759 105.962 97.9361 93.7859 222.905 93.6796 88.4677 83.7571 83.633 144.865 120.631 85.0692 80.9661 71.3852 68.3802 64.9618 61.1938 59.7288 59.417 57.2498 56.1337 55.9611 70.4549 60.869
threshold=50.500000000000007 127.69469135802471 221.26814814814819 0.88888898491859447 54.500000000000007 22.450000000000003 0.27777778357267385 29.750000000000004 281.6176543209877 134.70876543209877 170.66993827160496 2.8333332538604741 0.38888889551162725 5.6246326808111895e-10 42.500000000000007 10.161373138427736 26.350000000000005 179.94432098765435 34.650000000000013 47.500000000000007 20.850000000000005 3929.4095938791379 25056.63983216873 0.93688330054283153 0.075723338843656215 0.1111128330230713 26.950000000000003 1.0000000180025095e-35 25.650000000000002 1899.8106827236134
decision_type=8 2 2 2 10 10 2 10 2 2 2 2 2 2 10 2 10 2 8 10 8 2 2 2 2 2 10 2 8 2
left_child=1 7 3 14 9 8 -7 -1 25 18 20 -8 -9 -5 15 16 -3 -18 -2 23 -11 -15 -16 -14 -20 -4 -22 28 29 -12
right_child=4 2 5 13 -6 6 11 12 -10 10 27 -13 19 21 22 -17 17 -19 24 -21 26 -23 -24 -25 -26 -27 -28 -29 -30 -31
leaf_value=-0.018532566001198437 -0.088841316578787008 -0.075286843946400589 0.14072948831315452 -0.054921169442523725 -0.097229364473063309 -0.074065803596648855 0.052964363829982965 0.0018516588854774309 -0.021560594902146745 -0.10343093098718259 -0.055280867683294259 -0.050247599314578839 0.029226542490204621 0.030752371258015977 0.14467741293770861 -0.13687456196967737 0.13167180988702537 -0.0067088175819002803 -0.070403205565921972 -0.027513453891686909 0.12354048130658242 0.11820154192723438 -0.058586403501799701 0.116551256805139 0.035391014403184588 -0.043938237481297382 0.0054655962246164657 -0.054403241846738337 -0.04675403770930342 0.097882420361306607
leaf_weight=698.82428412139416 171.214978992939 31.899784222245216 158.67203561961651 95.507567912340164 469.64650341868401 317.79317113757133 212.04652431607246 426.33958627283573 63.363305866718292 15.860638648271559 32.668346583843231 148.22155304253101 127.85458396375179 556.96333625912666 2060.7274554222822 23.454370051622391 546.98119144141674 46.752015009522438 77.609737932682037 65.266492396593094 228.50766667723656 101.18219049274921 13.718668550252913 220.68916168808937 162.36792042851448 17.411875709891319 51.119688138365746 234.17937217652798 106.43906678259373 105.5765228420496
leaf_count=2770 753 126 403 385 2304 1419 717 1536 258 69 141 625 431 1894 4785 100 1310 160 341 246 610 284 55 640 571 68 174 1005 457 329
internal_value=0.0473861 0.0679262 0.0881355 0.111313 -0.026184 0.000161178 -0.0291959 0.0101318 0.0834855 0.00193422 0.0225027 0.0102025 0.0340869 0.0317185 0.133282 0.101078 0.110362 0.120614 -0.0365179 0.0669726 0.0907101 0.0445073 0.143257 0.0849797 0.000611587 0.121759 0.102408 -0.0194784 0.0136254 0.0608335
internal_weight=7588.86 5933.67 4394.7 3477.19 1655.19 917.508 678.061 1538.97 239.447 1185.54 774.351 360.268 840.15 753.653 2723.53 649.087 625.633 593.733 411.193 413.81 295.488 658.146 2074.45 348.544 239.978 176.084 279.627 478.863 244.684 138.245
internal_count=24966 18212 12589 9099 6754 3490 2761 5623 729 4450 2785 1342 2853 2563 6536 1696 1596 1470 1665 1317 853 2178 4840 1071 912 471 784 1932 927 470
is_linear=0
shrinkage=0.1


Tree=5
num_leaves=31
num_cat=0
split_feature=1 3 11 12 12 1 10 3 3 10 12 12 11 11 10 8 1 1 3 12 1 10 11 8 9 3 3 1 10 12
split_gain=1494.85 1574.85 460.008 441.249 228.852 160.794 129.435 148.094 108.376 128.412 108.568 89.8914 284.027 84.4233 81.9442 79.4558 75.6157 69.4468 65.9578 61.2452 58.8418 64.1372 56.2381 55.5048 49.5871 49.5449 75.5059 48.3115 94.5636 47.8088
threshold=1.1249549999999902 141.66932098765434 53.500000000000007 429.50000000000006 268.50000000000006 0.47432267535929573 27.250000000000004 127.69469135802471 311.76796296296305 28.250000000000004 192.50000000000003 349.50000000000006 45.500000000000007 48.500000000000007 33.45000000000001 -1.0000000180025095e-35 2.4127585509043699 5.1636395411631613 128.6495679012346 389.50000000000006 0.47432267535930872 16.550000000000004 47.500000000000007 -0.58332061767578114 1.5555557012557986 42.357592592592603 97.445925925925948 1.4943046388113197 27.450000000000003 261.50000000000006
decision_type=2 2 10 10 8 2 8 2 2 8 10 10 8 10 10 2 2 2 2 10 2 8 10 2 2 2 2 2 10 8
left_child=2 6 4 11 8 15 -2 13 9 10 -1 27 -13 17 20 23 -9 25 -12 -18 -7 24 -5 -6 -22 -8 -27 28 -3 -4
right_child=1 3 29 22 5 14 7 16 -10 -11 18 12 -14 -15 -16 -17 19 -19 -20 -21 21 -23 -24 -25 -26 26 -28 -29 -30 -31
leaf_value=-0.11394352629547969 -0.046814621644724087 0.1390836347433439 -0.11816964426228926 -0.11166499258645901 -0.032662905272154166 0.15565431074547076 0.058740627609361308 -0.016460324286665811 -0.075910660896877896 -0.029649465643403067 -0.027370803356777856 -0.14014479468613833 0.14069945220808419 -0.07908919993289619 0.075894496809131698 -0.049271668051958324 0.15705858361829794 -0.083651286059695865 0.093285396004001125 -0.0061578440344922346 0.17615345697793161 -0.0082371918623354527 0.075424547717298077 0.044377885634368716 -0.071860755129045911 -0.02348414790450375 0.052180323524878204 0.15522005152907925 0 -0.056803888586865747
leaf_weight=27.241637766361237 358.49134849011898 220.1868202984333 284.85972638428211 77.675103276968002 182.34431485831738 24.368100330233574 268.31814852356911 43.1471296697855 60.281234636902809 130.01538036763668 46.866672024130821 45.103696808218956 160.99641488492489 104.28832709789276 228.86305694282055 814.32582327723503 135.39646928012371 63.942803636193275 660.22588461637497 26.15851679444313 32.636396184563637 590.98414194583893 18.77130252122879 189.00404754281044 9.3322038948535901 333.55863992869854 216.13471777737141 1871.1714028418064 61.672555044293404 250.70479968190193
leaf_count=128 1532 510 1502 349 743 59 853 148 273 486 180 200 369 447 670 3480 290 288 1878 93 69 2242 55 647 39 1265 707 4044 201 1219
internal_value=0.0429003 0.084716 -0.00449702 0.134513 0.0107388 -0.00768439 0.00569672 0.0216133 0.0520922 0.0612124 0.0774541 0.1431 0.0783757 0.00540245 0.0244599 -0.0317939 0.0988241 0.0155848 0.0851196 0.130141 0.0063116 0.000167837 -0.0738253 0.00629362 0.118288 0.0235568 0.00612561 0.14921 0.108552 -0.0897893
internal_weight=7537.07 4005.01 3532.05 2455.58 2996.49 2071.86 1549.44 1190.94 924.631 864.35 734.334 2359.13 206.1 986.243 886.184 1185.67 204.702 881.954 707.093 161.555 657.321 632.953 96.4464 371.348 41.9686 818.012 549.693 2153.03 281.859 535.565
internal_count=24966 11351 13615 5728 10894 7949 5623 4091 2945 2672 2186 5324 569 3560 3079 4870 531 3113 2058 383 2409 2350 404 1390 108 2825 1972 4755 711 2721
is_linear=0
shrinkage=0.1


Tree=6
num_leaves=31
num_cat=0
split_feature=11 12 3 3 11 3 9 3 10 10 11 12 12 7 9 3 12 3 3 12 3 11 17 11 10 3 12 0 12 10
split_gain=800.678 877.659 430.123 456.479 242.056 188.716 135.693 127.46 113.183 105.77 115.909 86.9141 76.0164 74.3492 73.9489 68.1643 67.5621 85.8846 128.505 68.9356 64.5533 61.0677 50.9175 49.8944 80.3098 48.5124 46.9169 44.2445 43.6945 42.7729
threshold=50.500000000000007 346.50000000000006 269.75154320987662 120.5230864197531 54.500000000000007 212.53783950617287 0.51851835846900951 40.567037037037046 22.350000000000005 33.550000000000004 47.500000000000007 261.50000000000006 477.50000000000006 5.7299700745275666e-10 1.061729431152344 223.00111111111113 201.50000000000003 132.7098765432099 170.66993827160496 589.50000000000011 108.53290123456792 45.500000000000007 5.1095175743103036 41.500000000000007 25.850000000000005 155.14006172839507 295.50000000000006 0.31971618520504974 237.50000000000003 28.450000000000003
decision_type=8 10 2 2 10 2 2 2 10 10 10 10 10 2 2 2 8 2 2 8 2 10 2 10 10 2 10 2 8 10
left_child=1 2 3 26 16 6 23 -3 -7 10 20 -10 22 -8 15 25 -2 19 29 27 -9 -4 -11 24 -5 -12 -1 -18 -23 -19
right_child=4 7 21 5 -6 8 13 9 11 12 14 -13 -14 -15 -16 -17 17 18 -20 -21 -22 28 -24 -25 -26 -27 -28 -29 -30 -31
leaf_value=0.034502925312855169 -0.097822828677152196 0.066386031900753359 -0.10588190101073967 -0.12463846525228593 -0.087687626697019683 0.11317347642841857 -0.04600468356418852 -0.010418919032272595 0.080967536680611005 -0.060600304684124688 -0.054897173860458351 -0.029155084891836321 0.076326177582879337 0.08289152587110088 -0.057057913512299233 -0.045200785744499761 -0.094582192020000344 0.091878711104101049 -0.0083119079618061819 0.006526739815179235 -0.064746985253930106 0.062636219027583401 0.050774532917329362 0.13515405171203851 0.10362626991020139 0.11412085911667019 -0.022896548414567487 0.060818175679361944 -0.039188391183891821 -0.025891578086637446
leaf_weight=314.07232731580734 65.484342589974403 236.74491405487061 88.592572674155235 14.827854365110396 428.99395564198494 166.67481024563313 47.263046309351921 366.84222653508186 111.2942318469286 98.904780745506287 17.923714309930801 195.84017440676689 199.00634270906448 523.405886515975 68.618919432163239 44.052908077836037 159.5034580975771 256.19981706142426 420.2674742937088 213.70696705579758 560.72737397253513 61.946098655462265 68.040457084774971 1736.2933086454868 396.47259287536144 136.42418004572392 257.18576164543629 19.1833256483078 125.63457779586315 33.156930714845657
leaf_count=1064 320 745 421 66 2304 420 181 1485 321 403 71 802 605 1470 290 200 740 699 1689 815 2421 205 207 3965 995 342 974 67 559 120
internal_value=0.0391519 0.0563196 0.0821802 0.091027 -0.0235465 0.105759 0.115938 -0.00176135 0.0470287 -0.0121997 -0.0266541 0.010558 0.0346557 0.0719796 0.0310998 0.0622248 0 0.00597756 0.0268008 -0.0313984 -0.043403 -0.0379046 -0.0145807 0.127534 0.0948722 0.0936228 0.00849154 -0.0770967 -0.00487802 0.0779965
internal_weight=7433.29 5836.79 4039.5 3763.33 1596.5 3192.07 2718.26 1797.29 473.809 1560.54 1194.59 307.134 365.952 570.669 267.02 198.401 1167.5 1102.02 709.624 392.394 927.57 276.173 166.945 2147.59 411.3 154.348 571.258 178.687 187.581 289.357
internal_count=24966 18212 11443 10258 6754 8220 6677 6769 1543 6024 4809 1123 1215 1651 903 613 4450 4130 2508 1622 3906 1185 610 5026 1061 413 2038 807 764 819
is_linear=0
shrinkage=0.1


Tree=7
num_leaves=31
num_cat=0
split_feature=1 3 12 12 1 12 12 6 1 3 8 1 1 12 12 8 9 7 6 3 3 4 4 9 3 12 3 0 18 0
split_gain=1084.17 1117.63 442.871 150.215 140.441 133.592 115.025 108.976 86.5759 82.4122 79.9367 79.4581 70.0063 119.064 80.7504 69.6402 64.4641 61.1205 61.3612 65.4036 57.3796 50.4233 49.1111 57.4602 48.7833 48.7338 64.4142 46.4178 46.3609 45.698
threshold=0.85509736356160782 139.75524691358027 429.50000000000006 201.50000000000003 1.4425960984731658 267.50000000000006 255.50000000000003 4.3888890743255624 5.0298335897405098 311.76796296296305 -1.0000000180025095e-35 0.47432267535929573 2.7045752007288382 292.50000000000006 515.50000000000011 -0.083339691162109361 0.44444447755813604 7.0310325773310215e-10 1.7222222089767458 137.36870370370374 229.44098765432102 89.967197418212905 89.99829483032228 2.1851848363876347 195.55932098765433 299.50000000000006 200.63802469135805 0.16223855182174149 -3.6880919933319087 0.31971618520504974
decision_type=2 2 10 8 2 8 10 2 2 2 2 2 2 10 8 2 2 2 2 2 2 2 2 2 2 10 2 2 2 2
left_child=3 8 4 -1 6 9 -3 25 12 17 -6 15 14 -14 16 -7 -2 -5 20 -20 -19 -18 23 29 -21 26 -8 -17 -22 -13
right_child=1 2 -4 5 10 11 7 -9 -10 -11 -12 22 13 -15 -16 27 21 18 19 24 28 -23 -24 -25 -26 -27 -28 -29 -30 -31
leaf_value=-0.09809765193335894 -0.07164077222446992 0.12907265651409378 -0.068631870689296812 -0.064996692603613002 -0.0031102999434177406 0.0025071463697149991 -0.048407041683188712 0.13208931520632911 -0.081571041822170967 -0.080340050597781501 0.13327123323400974 0.014789397431173919 0.10608730685543727 0.0097860797639358621 0.036360515852057698 -0.068844498473289148 -0.063544852171067326 -0.011593899594482468 -0.077818023338697584 0.1277365811598202 0.10323456089997059 0.014122726603607184 0.18310060749575752 -0.038841630973531154 0.037943114647634828 -0.064119947041459929 0.11061632517132668 -0.02367239262048669 0.013444348819819294 0.12343365779702105
leaf_weight=181.53003634512424 205.99078530073166 179.39625656604767 131.18532375991344 54.393530085682869 42.424800604581833 383.12153166532516 46.685803592205048 68.799827486276627 106.02041943371296 64.356107294559479 1970.1501407623291 372.39441585540771 178.56035266816616 461.27679535746574 310.50346119701862 497.39198856055737 108.48127837479115 252.5842759758234 22.846482932567596 164.19465640187263 111.64421215653419 350.00401750206947 15.00060088932514 197.32215009629726 103.21187230944633 95.646699950098991 52.627272129058838 437.55837506055832 124.19031210243702 42.823968842625618
leaf_count=979 841 428 572 248 136 1494 165 177 496 322 4547 1354 488 1696 1071 2342 467 899 108 418 326 1273 36 789 364 362 132 1853 459 124
internal_value=0.035728 0.0679459 0.109479 -0.0101327 0.119058 -0.00444842 0.067388 0.0247264 0.0054249 0.0274043 0.130347 -0.0191985 0.0112454 0.0369407 -0.00553535 -0.0331523 -0.0252884 0.035934 0.043187 0.0796553 0.0211922 -0.00413471 0.0099567 0.00526204 0.0937217 -0.0131316 0.0351273 -0.0478586 0.0566297 0.0265044
internal_weight=7332.32 4307.75 2586.92 3024.56 2455.73 2843.03 443.156 263.76 1720.84 897.421 2012.57 1945.61 1614.82 639.837 974.98 1318.07 664.476 833.065 778.672 290.253 488.419 458.485 627.541 612.541 267.407 194.96 99.3131 934.95 235.835 415.218
internal_count=24966 12851 6519 12115 5947 11136 1264 836 6332 3144 4683 7992 5836 2184 3652 5689 2581 2822 2574 890 1684 1740 2303 2267 782 659 297 4195 785 1478
is_linear=0
shrinkage=0.1


Tree=8
num_leaves=31
num_cat=0
split_feature=1 3 12 11 12 1 10 12 3 12 6 10 6 12 10 6 11 7 3 10 12 11 0 10 1 0 1 12 3 10
split_gain=902.502 957.218 342.393 314.683 185.673 128.753 126.011 103.157 98.3862 92.0939 85.5253 177.836 133.139 85.5217 74.5714 66.8391 79.4619 66.5733 66.4124 64.323 63.8237 63.0227 61.6078 60.6113 60.6051 56.1698 53.2433 51.1797 51.7376 46.4021
threshold=0.85509736356160782 141.66932098765434 429.50000000000006 51.500000000000007 239.50000000000003 1.4269152403902621 27.250000000000004 239.50000000000003 106.37814814814816 365.50000000000006 0.27777778357267385 18.650000000000002 2.9444444179534917 300.50000000000006 23.650000000000002 1.8333333134651186 42.500000000000007 6.8612018966534839e-10 155.14006172839507 32.850000000000001 355.50000000000006 44.500000000000007 0.1140412703381017 21.050000000000004 1.4090657022215172 0.18982077981794535 1.3520276450298672 418.50000000000006 62.975740740740747 30.850000000000005
decision_type=2 2 10 8 10 2 8 10 2 10 2 10 2 10 10 2 8 2 2 10 8 10 2 8 2 2 2 8 2 8
left_child=3 6 5 4 -1 7 27 -3 20 22 11 -6 13 -12 -15 -7 -17 -9 19 -13 21 -8 -10 -19 -22 -5 -25 -2 -29 -11
right_child=1 2 -4 25 10 15 8 17 9 29 12 18 -14 14 -16 16 -18 23 -20 -21 24 -23 -24 26 -26 -27 -28 28 -30 -31
leaf_value=0.06820557588107154 -0.073908292646308563 0.12888557786971641 -0.059563503076359429 -0.077468185780648346 0.14616600803919735 0.12584500491984557 -0.0018890943679897858 0.11932942017000991 -0.0021084984831601246 -0.096397854451158158 0.08843493842729383 -0.022682505265165017 -0.026386713450641027 -0.086112933514930906 0.034085985502843391 0.15526841551393045 -0.054553225835231506 0.10273295045562383 -0.062518396080145228 0.13954440012742136 0.081089875104305681 -0.099276165999330604 0.11107559176635923 -0.062713851398050829 0.0038532831338677822 -0.015267384867738249 0.064788423737454026 0.078793586075933925 -0.035416056955548114 0.029257641829887576
leaf_weight=442.61741745471954 224.68589378893375 139.70020073652267 122.07422912120819 612.35866759717464 50.737014770507812 1858.3828547000885 195.27855893969536 55.006150096654892 57.244158715009689 40.917832553386688 256.2382443100214 95.146382510662079 464.84316113591194 62.215170219540596 275.82135446369648 28.434117719531059 44.963995456695557 42.007706329226494 507.89429815113544 31.54822301864624 129.81998209655285 101.49104809761047 251.25483639538288 127.16843329370022 469.52987745404243 196.53447617590427 42.425068587064743 53.610923886299133 143.16443547606468 96.204308211803436
leaf_count=1272 1026 329 544 3290 115 4440 700 140 197 186 726 367 1881 272 957 62 158 109 2274 81 404 449 658 483 1718 880 114 184 637 313
internal_value=0.0327011 0.062478 0.102771 -0.00924857 0.0104266 0.111312 0.00617417 0.0594421 0.0212068 0.0595577 -0.00420702 -0.0317517 0.0135352 0.044922 0.0114798 0.122133 0.0263811 0.0223349 -0.0463415 0.0177069 0.00197917 -0.0357515 0.0898114 -0.00285128 0.0208566 -0.0625164 -0.0300392 -0.0413832 -0.00355325 -0.00794094
internal_weight=7219.32 4223.36 2460.16 2995.95 2187.06 2338.09 1763.2 406.308 1341.74 445.621 1744.44 685.326 1059.12 594.275 338.037 1931.78 73.3981 266.607 634.589 126.695 896.119 296.77 308.499 211.601 599.35 808.893 169.594 421.461 196.775 137.122
internal_count=24966 12851 6379 12115 7945 5835 6472 1175 4625 1354 6673 2837 3836 1955 1229 4660 220 846 2722 448 3271 1149 855 706 2122 4170 597 1847 821 499
is_linear=0
shrinkage=0.1


Tree=9
num_leaves=31
num_cat=0
split_feature=1 3 6 3 10 1 10 3 0 1 6 9 10 0 10 3 18 1 9 3 2 10 10 9 3 1 1 9 8 3
split_gain=754.829 825.502 208.636 107.691 103.502 89.7385 120.525 80.5002 72.1488 71.1224 61.5006 65.3156 166.877 108.489 102.506 86.9996 78.9496 66.7076 60.4867 52.5588 57.5125 49.5868 46.2943 43.7122 42.4412 38.6935 39.0766 88.7027 37.3316 36.6904
threshold=0.85509736356160782 141.66932098765434 1.0000000180025095e-35 170.03296296296301 27.250000000000004 1.3767619086221894 22.850000000000005 106.37814814814816 0.093997358867414824 1.9455904389303043 8.9444446563720721 0.39506179094314581 22.450000000000003 0.30800643844640857 21.050000000000004 275.62043209876549 -4.7604975700378409 0.59997600000000006 2.2592595815658574 42.357592592592603 3604.629658793443 28.650000000000002 28.050000000000004 1.2839498519897463 216.87265432098766 4.6967526159356145 1.8928387030418148 1.0123459100723269 -2.1666412353515621 48.822098765432109
decision_type=2 2 2 2 8 2 8 2 2 2 2 2 8 2 8 2 2 2 2 2 2 8 8 2 2 2 2 2 2 2
left_child=10 4 5 9 29 6 -3 19 -9 23 11 12 16 -14 -13 17 -1 18 -16 20 -6 -20 -15 -4 -18 26 27 -10 -17 -2
right_child=1 2 3 -5 7 -7 -8 8 25 -11 -12 14 13 22 15 28 24 -19 21 -21 -22 -23 -24 -25 -26 -27 -28 -29 -30 -31
leaf_value=0.10612644278784994 0.028149242953485188 0.1143937055422542 -0.030985184012238556 -0.045588385721090641 0.044166691674610153 0.11601476451848261 -0.061188012628654823 -0.047292918804331938 -0.09486283148231453 -0.10642971309453807 -0.058371268454874226 -0.054911924005651258 -0.055635950022908554 -0.06505000922299034 0.062732097628231273 0.15050663688188559 -0.075610623060525406 -0.017869830278831021 0.044017987778286589 -0.018965430947403793 -0.076165864617315074 -0.027755459223915785 0.10600965318340996 0.09377350261979496 0.031887235216870806 -0.10280193747142319 0.10060076178460108 0.082062608004257576 -0.054912942047867098 -0.051249820427500661
leaf_weight=117.05429343879223 67.508076742291451 86.123581945896149 30.080010995268822 125.40961423516273 337.07989571988583 1806.0255668312311 69.292231306433678 59.075448542833328 38.152906388044357 21.073316484689713 227.37584547698498 214.4934213757515 789.92396269738674 19.515008971095085 548.56597647070885 8.1339894980192167 51.012417912483215 234.94728580117226 206.36191603541374 514.63361828029156 43.55382676422596 177.28790386021137 62.794124528765678 235.45032075047493 123.96024879813194 11.254218906164168 234.73695713281631 99.355571389198303 174.71567013859749 346.32895587384701
leaf_count=344 248 213 105 525 1074 4542 270 228 150 100 1091 974 3701 88 1761 28 262 908 731 2016 181 741 199 624 457 58 638 280 830 1599
internal_value=0.0300515 0.0576878 0.0961083 0.0309861 0.00554738 0.109714 0.0355805 0.0191172 0.0539609 0.0648827 -0.00848613 -0.00427293 -0.0222224 -0.0441755 0.00902634 0.0192922 0.0429333 0.0293951 0.0414209 0.00173963 0.0299722 0.0106049 0.0639581 0.0792021 0 0.0699008 0.0756516 0.0319207 -0.0444621 -0.03802
internal_weight=7081.28 4125.13 2373.45 412.013 1751.68 1961.44 155.416 1337.84 442.575 286.604 2956.14 2728.77 1164.26 872.233 1564.51 1350.01 292.027 1167.16 932.216 895.267 380.634 383.65 82.3091 265.53 174.973 383.5 372.245 137.508 182.85 413.837
internal_count=24966 12851 6379 1354 6472 5025 483 4625 1354 829 12115 11024 5051 3988 5973 4999 1063 4141 3233 3271 1255 1472 287 729 719 1126 1068 430 858 1847
is_linear=0
shrinkage=0.1


Tree=10
num_leaves=31
num_cat=0
split_feature=1 3 12 11 11 12 1 11 12 1 12 7 12 3 1 16 11 11 11 6 12 3 3 11 1 6 14 12 12 11
split_gain=632.255 712.582 300.531 256.758 110.921 103.864 92.9569 79.8471 79.9891 75.2559 63.1366 76.0907 57.5603 54.3573 53.9623 48.2006 47.5957 46.9743 46.8678 46.1565 57.638 56.7183 48.0897 39.2914 38.7611 39.4298 35.9504 35.7393 34.3524 123.524
threshold=0.85509736356160782 139.75524691358027 396.50000000000006 53.500000000000007 46.500000000000007 267.50000000000006 1.4943046388113197 50.500000000000007 766.50000000000011 5.1636395411631613 299.50000000000006 7.863633382716103e-10 201.50000000000003 311.76796296296305 0.45618894148480232 2.1674964427948002 41.500000000000007 44.500000000000007 50.500000000000007 6.6111109256744394 273.50000000000006 65.880864197530883 42.357592592592603 50.500000000000007 0.74243242176104707 3.8333332538604741 -9.7847938537597638 261.50000000000006 349.50000000000006 45.500000000000007
decision_type=2 2 10 10 8 8 2 10 10 2 10 2 10 2 2 2 8 8 10 2 10 2 2 10 2 2 2 8 10 8
left_child=3 7 6 5 -4 12 10 9 -9 19 16 -12 -1 17 -7 -16 -3 -14 28 20 21 -2 -22 -13 25 -17 -20 -5 -8 -30
right_child=1 2 4 27 -6 14 18 8 -10 -11 11 23 13 -15 15 24 -18 -19 26 -21 22 -23 -24 -25 -26 -27 -28 -29 29 -31
leaf_value=-0.056792373285144387 -0.010454525576333187 -0.11414914628884108 -0.097701294037805336 -0.10853665857982192 0.060362659882497005 -0.022613439341039449 0.11769115721869204 -0.085497572260959456 0.15981094368888094 -0.080432593406970371 0.11187205194220798 -0.090240639685081767 -0.012965056359479596 -0.062633628182669626 -0.0083778376074734491 0.087743643445294575 0.090207496627824485 0.058921140128985 0.1139453387963088 0.070938642802253107 0.038645168754699678 0.084674067361472496 -0.012157779227330755 0.046770174103722924 -0.0320041214920238 -0.050342400624896866 -0.036681266232804675 -0.04835277771681934 -0.13970320193595029 0.11678444874539727
leaf_weight=63.227841585874557 93.814677253365517 10.566980347037314 108.88314583897591 218.47021779417992 72.861006453633308 1118.4616826027632 1521.2740834206343 145.65419858694077 13.443512499332426 83.892421007156372 42.512910202145576 65.892849758267403 103.98376393318176 45.55255538225174 344.57656927406788 163.31542274355888 319.77469037473202 605.08705732226372 25.401499375700951 139.33355706930161 241.83807024359703 176.73878023028374 799.26132945716381 28.647649258375168 43.761359885334969 22.030533820390701 37.484664797782898 199.77725496888161 23.600847959518433 76.203251421451569
leaf_count=291 328 43 531 1406 224 4863 3938 730 35 422 106 267 345 222 1291 497 848 1800 63 435 762 509 3111 87 174 94 123 1132 99 190
internal_value=0.0275684 0.0532763 0.0891095 -0.00775841 -0.0338029 0.00430205 0.0995504 0.00384097 -0.063276 0.0108997 0.0594241 0.00157947 0.0335675 0.041336 -0.00979502 0.0150178 0.0830439 0.0482349 0.110586 0.016301 0.0103712 0.0514029 -0.000234989 -0.047622 0.0505228 0.0706118 0.023427 -0.0802121 0.113889 0.0543561
internal_weight=6955.32 4027.08 2333.1 2928.24 181.744 2510 2151.36 1693.98 159.098 1534.88 467.395 137.053 817.851 754.623 1692.15 573.684 330.342 709.071 1683.96 1450.99 1311.65 270.553 1041.1 94.5405 229.107 185.346 62.8862 418.247 1621.08 99.8041
internal_count=24966 12851 6519 12115 755 9577 5764 6332 765 5567 1351 460 2658 2367 6919 2056 891 2145 4413 5145 4710 837 3873 354 765 591 186 2538 4227 289
is_linear=0
shrinkage=0.1


Tree=11
num_leaves=31
num_cat=0
split_feature=11 6 11 10 10 10 17 17 2 5 4 4 19 4 10 11 0 15 7 4 17 19 7 16 2 8 8 6 6 0
split_gain=397.734 155.668 174.864 91.0413 79.7949 70.9737 53.4603 59.0038 56.9235 47.9436 45.2307 44.0041 42.9767 40.4636 40.0416 47.3247 44.6291 38.409 37.475 37.3572 37.1273 36.5408 33.2432 30.6487 33.0584 29.0921 27.8394 42.2383 58.3423 26.8678
threshold=53.500000000000007 1.0000000180025095e-35 41.500000000000007 21.850000000000005 20.450000000000003 25.850000000000005 20.630918502807621 2.4306174516677861 8650.6638466205532 24382.992403850658 89.996547698974624 89.961761474609389 -12.708467960357664 89.991149902343764 31.850000000000005 39.500000000000007 0.043380754468629608 10.569396018981935 2.9075758487348478e-10 89.995597839355483 9.686927795410158 18.313252449035648 8.9158884501106607e-10 3.7482470273971562 1002.7655801679349 0.36111283302307134 -0.58332061767578114 6.5000000000000009 6.8333332538604745 0.018541678949168874
decision_type=10 2 10 8 10 8 2 2 2 2 2 2 2 2 10 10 2 2 2 2 2 2 2 2 2 2 2 2 2 2
left_child=1 2 5 19 -4 -1 7 9 -8 17 -9 21 13 -5 16 -16 -7 -6 -14 29 -17 -2 -15 24 -18 -24 -20 -28 -29 -3
right_child=11 3 4 12 6 14 8 10 -10 -11 -12 -13 18 22 15 20 23 -19 26 -21 -22 -23 25 -25 -26 -27 27 28 -30 -31
leaf_value=-0.075215388300021113 -0.035798423947412027 0.032610601875748609 0.11158150522760031 0.023699971763697161 0.050922183785401198 -0.074643322109999105 -0.083275843939778826 0.075063823081935432 0.12397637626770433 -0.095824755133485456 -0.089813482469693257 -0.079856720025555383 -0.033513001305480135 -0.0037811572181628002 -0.074606247716543311 0.068754045498684038 -0.054028027269550971 0.0026142530273764696 -0.0019239967933744548 0.10376298011315287 -0.073337695698622529 0.096178555539010835 0.16141073959554725 0.048548453170733301 0.014763689334768786 -0.03188588413809517 0.019544649686621784 0.15015334183326537 0.032934504372781385 -0.053365277898668462
leaf_weight=89.730131044983864 145.62414473295212 39.490646496415138 259.64192472398281 121.14150713384151 1062.4306000620127 66.424301385879517 53.324066415429115 1080.683213442564 16.306111037731171 23.897377535700798 15.547565549612044 343.33390195667744 138.48716123402119 18.207931935787201 27.791770592331886 263.45596262812614 96.517753139138222 200.07500745356083 441.53352595865726 17.168319180607796 18.287907183170319 23.240946412086487 68.868767455220222 156.4711240530014 242.86083763837814 7.481061339378356 1290.9886095225811 61.076723784208298 147.58305387198925 283.21008318662643
leaf_count=450 799 144 695 421 3561 310 236 3387 41 102 78 2127 605 74 118 809 393 747 1627 54 77 89 165 522 907 30 4498 149 540 1211
internal_value=0.0253358 0.0322287 0.0455429 0.0136209 0.0585371 0.00876778 0.0528369 0.0553781 -0.0322572 0.0406183 0.0725545 -0.0592652 0.0208021 0.0633563 0.0176025 0.0464354 0.00149803 0.0433539 0.016312 -0.0345039 0.0589505 -0.0165864 0.112335 0.0120289 -0.00460783 0.141011 0.0199335 0.0264326 0.0682751 -0.0424668
internal_weight=6820.88 6308.68 3673.45 2635.24 2711.91 961.54 2452.26 2382.63 69.6302 1286.4 1096.23 512.199 2295.37 215.699 871.81 309.536 562.274 1262.51 2079.67 339.869 281.744 168.865 94.5578 495.85 339.379 76.3498 1941.18 1499.65 208.66 322.701
internal_count=24966 21951 12433 9518 8847 3586 8152 7875 277 4410 3465 3015 8109 690 3136 1004 2132 4308 7419 1409 886 888 269 1822 1300 195 6814 5187 689 1355
is_linear=0
shrinkage=0.1


Tree=12
num_leaves=31
num_cat=0
split_feature=1 6 1 1 10 10 10 1 1 1 0 10 16 8 18 2 9 9 2 1 10 7 9 10 16 1 0 1 0 17
split_gain=500.187 199.386 183.118 99.8224 96.8029 75.8983 70.8673 64.6086 63.9944 61.0212 54.7484 71.3777 61.3658 40.2626 39.5504 35.6469 35.9556 38.8276 35.9343 34.1338 33.0326 38.8858 31.9636 35.5869 31.6399 31.0143 30.6832 29.5371 28.783 28.7581
threshold=0.85509736356160782 1.0000000180025095e-35 4.4018830948816641 1.3520276450298672 20.450000000000003 22.450000000000003 32.95000000000001 1.7699927556385546 3.1650155712142971 1.9628593317313801 0.18926348927241202 27.150000000000002 14.256630420684816 1.1944437026977541 -4.7861685752868643 224.61124154980948 1.3333337903022768 2.5432097911834721 1692.9186898540522 1.0000000180025095e-35 34.550000000000004 3.2696132003206169e-10 9.7654318809509295 37.150000000000013 -6.6655399799346915 5.1636395411631613 0.17398111268150571 0.43730389925770646 0.34455072823693988 10.236260890960695
decision_type=2 2 2 2 8 8 10 2 2 2 2 8 2 2 2 2 2 2 2 2 10 2 2 10 2 2 2 2 2 2
left_child=10 2 3 4 -2 -3 8 13 28 -8 11 12 19 14 -7 -13 -17 18 -18 26 21 -9 23 27 -20 -4 -1 -12 -5 -11
right_child=1 5 25 6 -6 7 9 20 -10 29 22 15 -14 -15 -16 16 17 -19 24 -21 -22 -23 -24 -25 -26 -27 -28 -29 -30 -31
leaf_value=-0.073611749559754802 0.10915168041505385 -0.055620600044667345 0.0035351392293227896 0.094232012405115778 -0.039970152973661716 -0.030968008557693216 -0.075298289742953994 0.11981796364641351 0.039870822977690096 0.057170825293790743 -0.0053858980081257658 0.057466151673898402 0.062129815937285164 0.084948836381517442 0.036963127584803197 -0.066368854612025158 -0.09556254749204858 -0.043974269842607869 -0.06403974802920516 -0.0026935133744176807 0.037430326026579509 -0.049425796890322227 -0.053225457435646162 0.079135483359953324 0.074468588282794498 -0.073157396916761694 0.10412788868156193 0.032816216805523254 -0.04378697286272841 -0.068366292513059604
leaf_weight=115.4931329190731 60.312485173344612 142.28328216075897 132.14077673852444 1495.2443405389786 148.7811758890748 100.21434885263443 40.23259736597538 13.297105789184569 279.13793152570724 401.39548295736313 517.43488803505898 33.924719020724297 132.3642930611968 143.97585704922676 519.28348407149315 394.21429889649153 19.810955435037613 277.97320144623518 18.899596162140369 807.73871019482613 77.037846595048904 202.84483094513416 71.436796307563782 79.752023950219154 83.67348688095808 84.203533411026001 9.2832112759351713 327.71702817082405 13.731135472655295 17.582591742277145
leaf_count=653 164 664 517 4369 591 384 154 45 923 1233 2098 129 473 414 1735 1943 89 1306 83 3306 250 852 351 249 284 436 39 1112 53 67
internal_value=0.0230063 0.0465033 0.0617076 0.0694852 0.00288245 0.0125021 0.0756335 0.0218136 0.0846891 0.0400471 -0.00844608 -0.0184468 -0.00121678 0.037166 0.0257807 -0.040444 -0.044817 -0.0232343 0.023037 -0.0103725 -0.0178162 -0.0380495 0.0104577 0.0155366 0.0476103 -0.0260536 -0.0588703 0.00933049 0.0928817 0.0515143
internal_weight=6761.42 3871.7 2672.76 2456.42 209.094 1198.94 2247.32 1056.65 1788.11 459.211 2889.72 1893.38 1064.88 763.474 619.498 828.496 794.572 400.357 122.384 932.515 293.18 216.142 996.341 924.904 102.573 216.344 124.776 845.152 1508.98 418.978
internal_count=24966 12851 8507 7554 755 4344 6799 3680 5345 1454 12115 8305 4471 2533 2119 3834 3705 1762 456 3998 1147 897 3810 3459 367 953 692 3210 4422 1300
is_linear=0
shrinkage=0.1


Tree=13
num_leaves=31
num_cat=0
split_feature=1 12 7 12 12 6 10 0 1 12 1 4 19 1 6 1 1 10 12 1 19 10 4 1 8 12 12 10 10 10
split_gain=416.979 402.684 119.911 119.675 54.4729 60.3496 125.502 83.6518 58.9427 53.2767 52.9331 52.7539 66.0229 52.4304 51.5665 63.3002 46.1209 49.2861 45.296 40.8885 36.2734 34.3713 39.1804 55.6085 37.0032 34.1352 47.4777 33.5186 31.4942 28.7826
threshold=1.1249549999999902 328.50000000000006 0.99050073964142926 192.50000000000003 237.50000000000003 0.27777778357267385 18.850000000000005 0.30800643844640857 0.074997000000000882 840.00000000000011 2.1632442320477794 89.991073608398452 -13.052502632141112 4.4018830948816641 0.38888889551162725 1.5659833344975285 1.4269152403902621 27.450000000000003 300.50000000000006 1.2749489999999994 3.3942500352859502 28.050000000000004 89.994281768798842 0.2999879999999992 -1.0000000180025095e-35 426.50000000000006 589.50000000000011 23.950000000000003 32.45000000000001 40.150000000000013
decision_type=2 8 2 8 8 2 8 2 2 10 2 2 2 2 2 2 2 10 10 2 2 10 2 2 2 8 10 10 8 8
left_child=3 2 18 -1 21 6 -6 20 -7 11 14 27 -13 16 15 -3 17 -4 -2 -16 -8 22 23 -5 -23 -9 -27 -10 -21 -18
right_child=1 10 13 4 5 8 7 25 9 -11 -12 12 -14 -15 19 -17 29 -19 -20 28 -22 24 -24 -25 -26 26 -28 -29 -30 -31
leaf_value=-0.10752869750442136 0.041699363127014805 -0.032875522552861296 0.076045419997352703 -0.01497549908099023 0.11047272261379704 -0.047584540940882852 -0.058814339477566285 -0.016413412715376906 -0.028168260029957128 -0.090330121273507147 -0.013230231026663292 0.1232068296965794 0.024911339334892084 -0.010280689277223439 0.058304492671968591 0.078123188474185715 0.096012409397566389 -0.070700056430879926 -0.042895205175380473 -0.052771692874134996 -0.012371383757025728 0.03856862267714025 0.1059818796153273 0.056063945433174479 -0.11556830737598332 0.16342581777335285 -0.045169279856136536 0.013777863445111347 0.018336083663046756 -0.060834133491811597
leaf_weight=107.5617862790823 311.06938177347183 62.868554763495922 60.969023704528809 195.39814684540033 61.502248466014862 187.46944519877434 594.82430174201727 35.947733834385872 275.32556959986687 48.054169803857803 757.89300087094307 81.762849703431129 427.08518493920565 51.611871123313904 84.069565504789352 245.56409947574139 1430.6229626238346 34.837988153100014 77.453543305397034 142.25137017667294 243.44702982157469 27.426223158836365 68.60223613679409 245.65658178180456 32.07130316644907 38.553437501192093 13.635624781250952 611.57087418437004 106.79544174671173 10.38428086042404
leaf_count=759 989 239 183 823 172 907 2882 146 1155 216 2944 221 1506 209 289 744 4276 134 310 643 1077 108 197 783 175 99 60 2329 351 40
internal_value=0.0210036 0.0456997 0.0747475 -0.00427156 -0.000724095 -0.0068498 -0.0263581 -0.0356592 0.00491226 0.0118261 0.00456941 0.015477 0.0411125 0.0869489 0.0257405 0.0551418 0.0902838 0.0214727 0.0245116 -0.00126642 -0.0454765 0.0272528 0.0357656 0.0244028 -0.0434007 0.0560547 0.107221 0.000626545 -0.0219282 0.0947714
internal_weight=6672.29 3376.39 1976.95 3295.89 3188.33 2619.18 987.91 926.408 1631.27 1443.8 1399.44 1395.74 508.848 1588.43 641.549 308.433 1536.81 95.807 388.523 333.116 838.271 569.154 509.657 441.055 59.4975 88.1368 52.1891 886.896 249.047 1441.01
internal_count=24966 11351 6141 13615 12856 10770 4436 4264 6334 5427 5210 5211 1727 4842 2266 983 4633 317 1299 1283 3959 2086 1803 1606 283 305 159 3484 994 4316
is_linear=0
shrinkage=0.1


Tree=14
num_leaves=31
num_cat=0
split_feature=1 3 11 6 11 11 1 10 11 1 10 6 10 6 3 17 14 3 0 0 10 1 3 4 0 6 1 3 10 4
split_gain=351.584 505.325 177.04 140.314 103.741 123.508 65.2955 76.2316 66.6631 148.789 58.0761 56.254 147.753 71.6227 52.1611 51.3437 49.6005 48.7181 41.9163 41.0444 38.7121 36.5959 38.603 34.1971 33.6885 33.2797 32.6022 35.9545 32.004 32.3181
threshold=0.85509736356160782 141.66932098765434 51.500000000000007 1.0000000180025095e-35 52.500000000000007 42.500000000000007 1.3767619086221894 20.450000000000003 42.500000000000007 2.2895590423459296 29.750000000000004 0.27777778357267385 22.450000000000003 3.5000000000000004 155.14006172839507 10.161373138427736 0.40266056358814245 106.37814814814816 0.18982077981794535 0.1127817256098053 20.450000000000003 2.7045752007288382 18.243525394247808 1.0000000180025095e-35 0.20489751068895326 6.9444444179534921 0.59997600000000006 269.75154320987662 18.950000000000003 89.992118835449233
decision_type=2 2 8 2 10 8 2 8 8 2 8 2 10 2 2 2 2 2 2 2 10 2 2 2 2 2 2 2 10 2
left_child=2 10 11 6 5 -5 7 -3 9 -8 21 12 28 20 16 -11 -14 -12 -4 -19 -13 22 -2 -20 -25 -23 27 -22 -1 -30
right_child=1 3 18 4 -6 -7 8 -9 -10 15 17 13 14 -15 -16 -17 -18 19 23 -21 26 25 -24 24 -26 -27 -28 -29 29 -31
leaf_value=0.10840340397887234 0.065660654787600692 0.1149005740975878 -0.064412256213074004 0.093041337886434053 0.10217167731552151 -0.052418481302850484 -0.16670248938964921 -0.035223191281847685 0.10476260519421061 0.079581183056881666 -7.9560223528968397e-05 -0.026398557698913423 -0.062222762509629131 -0.012810547662448568 -0.054337531308050205 -0.18636553620271262 0.063377574197690786 -0.022985993634570906 0.1327410449397701 0.063691493824256415 0.061895529666976139 -0.0040307444308039465 -0.054990672424771306 0.064106555950335292 -0.044422562655222604 0.1885591128229536 -0.0020028929738518685 -0.0021793207668439575 -0.0093123260984870528 0.099584348734838943
leaf_weight=81.634343713521957 27.279481321573257 53.018519595265388 532.03047357499599 79.927004188299179 110.07852311432362 207.12885965406895 27.095940798521042 88.294383652508259 1131.2144613265991 297.92224122583866 722.80671927332878 85.990093007683754 48.643502086400986 440.41696706414223 466.65370701253414 6.3022587597370139 83.338268876075745 66.255842760205269 14.516125351190565 265.09834030270576 568.48264545202255 305.08017034828663 327.37533511966467 34.509696237742901 137.61719713360071 8.2351751327514631 128.81592783331871 99.874546885490417 81.055713534355164 38.95550748705864
leaf_count=211 87 142 3290 210 287 857 113 341 3481 919 2568 334 201 1792 2218 29 270 235 48 778 1669 1267 1511 149 683 26 443 396 306 105
internal_value=0.0192365 0.0394563 -0.00721648 0.0736211 0.0200154 -0.0113875 0.0868115 0.02081 0.0931018 0.0527925 -0.000202198 0.00726404 -0.0135811 0.019944 -0.038615 0.0731517 0.0162142 0.014353 -0.0500997 0.046042 0.0363871 -0.0233091 -0.0452707 -0.00864248 -0.0218414 0.00129693 0.0433096 0.0521823 0.0600687 0.0257399
internal_weight=6565.65 3723.11 2842.53 2000.98 397.134 287.056 1603.85 141.313 1462.53 331.32 1722.13 2123.86 800.281 1323.58 598.635 304.224 131.982 1054.16 718.673 331.354 883.163 667.97 354.655 186.643 172.127 313.315 797.173 668.357 201.646 120.011
internal_count=24966 12851 12115 6379 1354 1067 5025 483 4542 1061 6472 7945 3311 4634 2689 948 471 3581 4170 1013 2842 2891 1598 880 832 1293 2508 2065 622 411
is_linear=0
shrinkage=0.1


Tree=15
num_leaves=31
num_cat=0
split_feature=1 3 12 11 11 1 12 12 10 0 3 11 12 10 1 3 14 12 6 6 17 3 12 3 10 12 11 12 6 1
split_gain=295.238 439.485 205.251 184.18 151.894 75.7757 69.7775 68.8273 56.5796 58.6152 52.4916 52.1101 62.6301 50.2823 51.76 48.398 44.5062 43.557 46.7415 42.1982 41.9152 44.1895 46.4859 40.3471 40.1617 39.4172 50.1452 37.7 35.0925 33.6642
threshold=0.85509736356160782 141.66932098765434 349.50000000000006 46.500000000000007 53.500000000000007 1.4943046388113197 269.50000000000006 299.50000000000006 28.250000000000004 0.29383746423334373 311.76796296296305 48.500000000000007 766.50000000000011 25.850000000000005 5.0298335897405098 131.63944444444448 -22.052670478820797 201.50000000000003 1.7222222089767458 9.6111111640930194 -10.69656467437744 106.37814814814816 688.50000000000011 229.44098765432102 24.250000000000004 477.50000000000006 47.500000000000007 261.50000000000006 2.8333332538604741 2.0688843749347074
decision_type=2 2 10 8 10 2 10 10 8 2 2 10 10 8 2 2 2 8 2 2 2 2 10 2 10 10 10 8 2 2
left_child=4 11 5 16 6 7 8 24 10 -10 17 13 15 -2 -15 -13 -4 -1 23 -20 25 22 -22 -19 -3 -8 -27 -6 -26 -5
right_child=1 2 3 29 27 -7 20 -9 9 -11 -12 12 -14 14 -16 -17 -18 18 19 -21 21 -23 -24 -25 28 26 -28 -29 -30 -31
leaf_value=-0.045438030066952718 -0.038893064151691074 0.09979298272684485 0.074096022018751165 0.076466795253597092 -0.099729761498025371 0.095572053453304801 -0.0028849619163047601 -0.046165407010902548 -0.042889459008669639 0.10004690054695256 -0.06600441455254058 -0.082395999757319816 0.11617177961143249 0.019079704521850899 -0.065802476026699044 0.053289567849265619 -0.10562704683547225 -0.0062807502055829039 0.091568272130836695 -0.092649575702633991 0.046326401934569356 -0.028040338552105692 -0.08988178670986223 0.059302144394303084 -0.020818522987595397 0.11304777484373692 -0.047393245595690275 -0.033393355435338466 0.078772594556318229 -0.14156367242577081
leaf_weight=48.814130909740925 207.48759211599827 151.15100076794624 14.011444732546805 158.99216020107269 180.86676082760096 1246.2378945797682 208.46406015753746 68.492265269160271 186.24681109189987 32.625047147274017 44.887448951601982 174.53502335399389 20.495101854205132 1206.9427828192711 74.972712606191635 29.275728568434715 130.59201122820377 179.0847806930542 256.21533179283142 11.750796988606451 157.89254076778889 1004.5540700107813 28.416968956589699 190.06913702189922 75.700272336602211 75.660090908408165 24.474227860569954 176.20976769179106 63.210235834121704 6.2046790570020667
leaf_count=231 1013 428 51 490 1406 4044 883 254 845 89 239 883 55 4033 395 93 649 574 680 50 562 4383 132 577 264 222 110 1132 174 25
internal_value=0.0177116 0.03655 0.0694639 -0.00474009 -0.00661421 0.0838451 0.00223967 0.0426548 0.0234693 -0.0207704 0.0368654 -0.000182889 -0.0450627 0.00653466 0.01399 -0.0622526 -0.0871366 0.0438291 0.0508856 0.0828038 -0.0111463 -0.0196996 0.0246483 0.0272852 0.064058 0.0214945 0.0727641 -0.0674581 0.0240241 0.0668735
internal_weight=6434.53 3628.3 1914.59 309.8 2806.23 1604.79 2449.16 358.554 949.693 218.872 730.822 1713.71 224.306 1489.4 1281.92 203.811 144.603 685.934 637.12 267.966 1499.46 1190.86 186.31 369.154 290.062 308.598 100.134 357.077 138.911 165.197
internal_count=24966 12851 6379 1215 12115 5164 9577 1120 3285 934 2351 6472 1031 5441 4428 976 700 2112 1881 730 6292 5077 694 1151 866 1215 332 2538 438 515
is_linear=0
shrinkage=0.1


Tree=16
num_leaves=31
num_cat=0
split_feature=11 12 11 3 3 9 3 11 3 6 5 11 19 11 12 12 3 12 3 5 5 5 3 14 3 5 4 2 18 12
split_gain=211.609 177.912 146.158 124.417 168.383 46.3425 45.9434 36.6793 39.9658 36.6535 36.4764 35.0458 34.6196 34.4625 57.7008 34.4365 33.6713 85.9532 44.8466 48.5131 36.3331 33.4674 49.1469 32.7403 31.2655 30.1075 33.7931 29.4869 39.0185 35.1326
threshold=54.500000000000007 327.50000000000006 50.500000000000007 212.53783950617287 120.5230864197531 0.51851835846900951 118.17641975308644 44.500000000000007 45.637098765432107 0.38888889551162725 20137.895302313318 44.500000000000007 2.8926506042480473 41.500000000000007 285.50000000000006 1090.5000000000002 205.29981481481482 443.50000000000006 160.67870370370375 5263.0084927051194 5348.2314625325171 11269.695193292895 170.03296296296301 2.1824996471405034 309.20777777777784 9611.7948450029417 89.993705749511733 1226.4995962623509 3.3972524404525761 335.50000000000006
decision_type=10 8 8 2 2 2 2 8 2 2 2 10 2 10 10 8 2 8 2 2 2 2 2 2 2 2 2 2 2 10
left_child=1 2 3 4 9 13 -4 8 -3 10 -1 -5 -8 14 -6 27 18 -18 19 -9 -21 -20 23 -23 -13 -14 -27 28 -10 -29
right_child=-2 7 6 11 5 -7 12 16 15 -11 -12 24 25 -15 -16 -17 17 -19 21 20 -22 22 -24 -25 -26 26 -28 29 -30 -31
leaf_value=-0.049000243999674224 -0.063445694102570296 0.03860427319458825 -0.087616805351310612 -0.040918056378758727 0.075406469706418913 0.041973849993368943 -0.02469962544080569 -0.046082175857523056 -0.069561884981993685 0.02859155632415164 0.058281743734157232 0.028438129471375018 -0.016259545650319063 0.086790317982637658 -0.02204343808516785 0.066601814560629927 -0.065813624120184044 0.029319388238088412 0.067672386723105493 0.15528922010860741 0.011931591629274534 0.098041411792480132 -0.037006957359725777 -0.11794191126263276 -0.044383707903609938 0.031675237070860389 0.1621417159685625 -0.12923658612927827 0.028940432401970934 -0.0065557489507711668
leaf_weight=180.50316448509693 314.78834928572178 121.99047094583511 70.062070772051811 135.88335134088993 202.58144025504589 504.08563493192196 259.53896568715572 152.65445138514042 235.22825413197279 204.74102291464806 36.742127031087875 374.07028011977673 75.57890922576189 1045.8178808391094 84.087986335158348 40.00842547416687 180.89276027679443 196.30929496884346 251.7814399600029 17.301211655139923 711.35800629854202 60.727678701281548 94.687173753976822 6.6653249561786643 68.129370450973511 86.728578895330429 26.322125032544136 23.671906739473343 46.302191764116287 501.83279313147068
leaf_count=717 2304 395 385 626 665 1473 1129 687 1068 674 120 1350 345 3600 314 128 919 795 866 39 2593 199 407 31 358 317 66 110 179 2107
internal_value=0.0162705 0.020482 0.0357634 0.0446904 0.0552843 0.0683672 -0.0128993 0.0010288 -0.0144008 -0.00144583 -0.0302138 0.00310332 -0.000827024 0.078238 0.0464969 -0.022189 0.0100323 -0.016092 0.0177243 0.00482914 0.0156807 0.0448657 0.00862591 0.0738059 0.0169181 0.0314494 0.0640845 -0.0267915 -0.0529626 -0.0125069
internal_weight=6311.07 5996.28 3354.87 2836.64 2258.56 1836.57 518.231 2641.41 969.034 421.986 217.245 578.083 448.169 1332.49 286.669 847.044 1672.38 377.202 1295.18 881.314 728.659 413.862 162.08 67.393 442.2 188.63 113.051 807.035 281.53 525.505
internal_count=24966 22662 12139 9897 7563 6052 2242 10523 3987 1511 837 2334 1857 4579 979 3592 6536 1714 4822 3319 2632 1503 637 230 1708 728 383 3464 1247 2217
is_linear=0
shrinkage=0.1


Tree=17
num_leaves=31
num_cat=0
split_feature=1 3 12 1 12 1 12 10 12 1 10 8 12 10 0 4 3 6 3 8 12 10 12 10 4 7 12 16 17 3
split_gain=221.227 339.176 169.047 84.3662 74.1412 65.6883 49.766 38.3437 38.1053 38.0967 37.2865 35.9115 34.232 41.2135 53.6442 41.231 44.6983 74.8469 46.5918 37.7617 36.64 62.6426 59.5859 43.4792 36.6003 34.1098 32.4776 29.6661 29.3623 29.8126
threshold=0.85509736356160782 141.66932098765434 353.50000000000006 2.0688843749347074 192.50000000000003 1.4943046388113197 299.50000000000006 29.750000000000004 429.50000000000006 1.2208627082457053 27.450000000000003 -0.027774333953857418 267.50000000000006 26.650000000000002 0.21123801255374167 89.993183135986342 194.6671604938272 1.1666666865348818 149.77827160493828 0.58333015441894542 455.50000000000006 31.550000000000004 840.00000000000011 16.550000000000004 89.989757537841811 8.891181098296375e-09 266.50000000000006 1.8473360538482668 -9.1303396224975568 102.72479192675823
decision_type=2 2 10 2 8 2 10 8 10 2 10 2 10 8 2 2 2 2 2 2 10 10 10 8 2 2 10 2 2 2
left_child=4 7 5 8 -1 6 10 -2 -4 26 -3 -7 13 15 25 16 17 -6 -19 20 23 27 -23 -14 -16 -15 -9 -22 -11 -30
right_child=1 2 3 -5 12 11 -8 9 -10 28 -12 -13 19 14 24 -17 -18 18 -20 -21 21 22 -24 -25 -26 -27 -28 -29 29 -31
leaf_value=-0.098636695260475749 -0.01937503139150884 0.078876511152129181 0.045119572465238317 -0.13702371763482338 -0.044690530792528924 -0.012853621602653055 -0.034443081195363788 -0.02369309481156091 -0.035693317020518173 -0.037742392187622445 -0.0025807448250328106 0.090780053002610661 0.10880681702397617 -0.0096254766246865135 0.085881490371990027 0.07532258974106304 -0.012457677474074964 -0.01554005252667261 0.10297426399795427 -0.050919035141861163 -0.0504315284492758 0.078716880694127092 -0.08721623453725591 -0.019505492728442913 -0.06037626618504123 -0.088404447448622386 0.073133892605235132 0.028010687219766496 -0.0032265492690094558 0.0404999589231443
leaf_weight=83.262031108140945 648.95388494431973 204.54471836984158 154.43902091681957 41.979933083057404 67.852511495351791 32.511363744735718 73.560193553566933 42.453031644225121 91.339095823466778 148.93419191241264 74.029491677880287 1098.6071602255106 25.92231697589159 131.18422553688288 64.482782028615475 130.93443003296852 309.42217693477869 40.724685862660408 145.96963425725698 217.79552380740643 123.1330788731575 177.97955328226089 23.228004574775696 1016.232480764389 21.539926052093506 98.223234705626965 151.65260834991932 76.268186531960964 471.67479698359966 229.25670619308949
leaf_count=720 2891 623 536 202 278 104 273 166 441 559 243 3957 78 612 200 400 1282 192 388 1038 582 606 108 4687 86 551 440 307 1689 727
internal_value=0.0148843 0.0317044 0.0622856 -0.00752123 -0.00623806 0.0758918 0.0375238 -0.000246133 0.0146587 0.0115562 0.0569402 0.0877043 -0.00328437 0.0111713 -0.0185862 0.0248298 0.0128175 0.0438614 0.0766442 -0.0121412 -0.00618698 0.0193715 0.0587299 -0.0161168 0.0478367 -0.0440268 0.0514313 -0.0199394 0.00228168 0.0109701
internal_weight=6218.09 3463.94 1771.01 287.758 2754.15 1483.25 352.134 1692.93 245.778 1043.97 278.574 1131.12 2670.89 1010.33 315.43 694.903 563.969 254.547 186.694 1660.56 1442.76 400.609 201.208 1042.15 86.0227 229.407 194.106 199.401 849.866 700.932
internal_count=24966 12851 6379 1179 12115 5200 1139 6472 977 3581 866 4061 11395 3989 1449 2540 2140 858 580 7406 6368 1603 714 4765 286 1163 606 889 2975 2416
is_linear=0
shrinkage=0.1


Tree=18
num_leaves=31
num_cat=0
split_feature=1 3 12 11 11 12 1 12 9 9 10 0 11 12 3 6 12 3 3 14 11 6 10 6 10 4 17 3 14 14
split_gain=185.224 293.755 147.612 161.576 108.4 71.7078 61.5847 42.1603 41.9941 78.5624 77.2686 39.4928 38.9127 51.8296 48.3256 38.2077 48.9967 45.6892 37.5221 45.6729 37.3342 37.2952 41.2671 40.7193 36.5933 35.7407 34.592 33.7383 43.2416 31.1929
threshold=0.85509736356160782 141.66932098765434 353.50000000000006 46.500000000000007 51.500000000000007 237.50000000000003 1.4943046388113197 239.50000000000003 0.39506179094314581 2.2469139099121098 17.350000000000005 0.13386487634679431 48.500000000000007 583.50000000000011 131.63944444444448 6.5000000000000009 273.50000000000006 32.821913580246921 155.14006172839507 0.40266056358814245 50.500000000000007 1.7222222089767458 22.550000000000004 1.0000000180025095e-35 23.450000000000003 89.990398406982436 -5.5821592807769767 254.88493827160497 -5.8659691810607901 2.3292325735092168
decision_type=2 2 10 8 8 10 2 8 2 2 10 2 10 10 2 2 10 2 2 2 8 2 10 2 10 2 2 2 2 2
left_child=4 12 6 -4 5 21 7 -3 10 24 -7 -9 15 14 -14 16 -2 -18 19 -12 -8 22 23 -1 29 -25 -11 -20 -29 -10
right_child=1 2 3 -5 -6 8 20 11 9 26 18 -13 13 -15 -16 -17 17 -19 27 -21 -22 -23 -24 25 -26 -27 -28 28 -30 -31
leaf_value=0.091489326853676306 0.037995235861457262 0.085427212835487737 -0.089364351946027695 0.061724005684406016 -0.04114782073773221 0.11276252912502682 0.087816126625822125 0.037939161201048642 -0.059867149305973123 0.023004407754193861 -0.065241333546951427 -0.049658813381861726 -0.088938143683085238 0.056369446433885487 0.049449516924969739 0.055195091397149967 0.039793389867337083 -0.018211815706225501 -0.070904381024170363 0.059513116958437307 0 0.077060762143526307 -0.032483632922809903 -0.10173770808716726 0.049022177578457254 0.08662814787381648 -0.035061507269598634 0.068617695755588654 -0.040237084686262081 0.048827078575036986
leaf_weight=86.954374551773071 272.89762912690639 109.89568553864956 129.1828169375658 153.83137328922749 655.38062217831612 37.418445378541946 1020.732815772295 161.70996643602848 64.487601891160011 138.30359980463982 44.185758978128433 73.74131466448307 142.36167597025633 42.69029189646244 28.952269084751606 139.07155275344849 158.07438273727894 902.35093901306391 254.09679244458675 81.28241266310215 48.817226827144623 180.20863264799118 98.338793590664864 24.966103956103325 420.47932846844196 15.089247718453406 373.89660266041756 45.463683925569057 163.76241737604141 42.539176151156425
leaf_count=234 890 323 678 501 4170 105 3891 542 268 528 195 274 798 141 92 421 477 3653 1169 261 170 493 357 101 1310 40 1615 212 915 142
internal_value=0.0136476 0.0292762 0.0586251 -0.00696053 -0.00571619 0.00546 0.0718102 0.0344597 -0.0036717 0.00857814 -0.024151 0.00998732 -0.000231056 -0.040029 -0.0648189 0.00550872 0.000213781 -0.0094416 -0.033198 0.0146195 0.0837334 0.0431332 0.0153394 0.0531127 0.0356991 -0.027961 -0.0191735 -0.046366 -0.015894 -0.0156875
internal_weight=6111.16 3384.31 1697.91 283.014 2726.85 2071.47 1414.9 345.347 1665.92 1039.71 626.21 235.451 1686.4 214.004 171.314 1472.39 1333.32 1060.43 588.791 125.468 1069.55 405.557 225.349 127.01 527.506 40.0554 512.2 463.323 209.226 107.027
internal_count=24966 12851 6379 1179 12115 7945 5200 1139 6720 3863 2857 816 6472 1031 890 5441 5020 4130 2752 456 4061 1225 732 375 1720 141 2143 2296 1127 410
is_linear=0
shrinkage=0.1


Tree=19
num_leaves=31
num_cat=0
split_feature=1 12 11 7 11 11 11 11 1 10 10 1 12 12 6 10 5 8 12 6 12 1 12 19 10 10 6 9 1 1
split_gain=155.011 163.208 96.4219 88.1679 91.0407 77.817 61.5608 67.9332 43.4486 52.2822 42.2665 40.6935 40.0249 39.9079 39.2216 45.5435 43.3359 42.3308 37.6772 37.4289 33.1029 32.5187 31.8072 27.6325 28.9066 32.2739 26.2873 25.478 80.8868 42.9259
threshold=0.85509736356160782 325.50000000000006 53.500000000000007 0.99050073964142926 39.500000000000007 44.500000000000007 45.500000000000007 51.500000000000007 1.4269152403902621 22.850000000000005 29.150000000000002 5.2908771365774827 252.50000000000003 240.50000000000003 1.7222222089767458 22.650000000000002 22027.521362722098 1.0000000180025095e-35 261.50000000000006 8.9444446563720721 249.50000000000003 3.4518991440432867 204.50000000000003 -13.052502632141112 34.250000000000007 28.450000000000003 0.83333334326744091 0.66666662693023693 1.3767619086221894 1.4090657022215172
decision_type=2 8 10 2 10 8 8 8 2 10 10 2 10 10 2 8 2 2 8 2 10 2 8 2 10 10 2 2 2 2
left_child=2 3 12 6 13 -3 -2 -8 9 -6 20 -10 14 -5 15 17 26 -1 -4 22 -9 27 -16 24 25 -14 -17 28 -7 -29
right_child=1 5 18 4 8 21 7 10 11 -11 -12 -13 23 -15 19 16 -18 -19 -20 -21 -22 -23 -24 -25 -26 -27 -28 29 -30 -31
leaf_value=0.056910674618687741 0.048370905752074853 -0.020198582939241316 -0.092861765449461828 0.0950414341234493 0.07873979315723878 -0.075681991533186832 -0.089839822933550112 0.078827321753846963 0.07632586093909019 -0.039283457902440672 -0.11080291324531576 -0.11475607522256637 0.037275674725556922 -0.12481505002827686 -0.033595130767761369 -0.066838391099379862 0.093552127588289638 -0.074935089505374225 -0.022439383527742308 -0.051148722177747331 -0.023751928760403246 -0.047577719032508757 0.072970686898155751 -0.011364817882887575 0.09852984452936718 -0.074457213897688709 0.0096516588188398054 0.039619127160780435 0.067569868764792512 -0.024207970552216157
leaf_weight=164.41558307409286 229.39412438869476 728.31293085962534 152.83508592098951 9.3505669683217985 69.276903934776783 43.607530228793621 94.050689622759819 80.800957165658474 1057.2614839375019 78.602855831384659 20.587530687451363 10.002497822046278 90.531118422746658 35.448058530688286 29.717550724744797 145.11282918602228 24.560987547039986 27.073073886334896 161.08091054111719 31.780556090176105 48.534138098359108 56.599707588553429 241.37817618250847 1483.1460909545422 45.332853466272354 34.862283885478973 61.470668993890285 252.04154732078314 312.60384761542082 177.79410333186388
leaf_count=517 674 3100 1406 34 247 191 399 270 4184 309 131 58 338 157 142 701 63 114 1132 163 212 225 697 6340 131 160 211 871 1061 728
internal_value=0.0125545 0.0270706 -0.00522073 0.0482242 0.0620576 0.00365129 0.0111405 -0.0235115 0.0672755 0.0154925 0.0177552 0.0743357 0.00161999 -0.0756689 0.0212198 0.00127124 -0.0283087 0.0374581 -0.0572292 0.0486312 0.0396794 0.0243831 0.0608409 -0.00692513 0.0309029 0.00507684 -0.0436595 0.0297457 0.0495902 0.0129911
internal_weight=5997.57 3304.27 2693.3 1733.31 1259.94 1570.96 473.367 243.973 1215.14 147.88 149.923 1067.26 2379.38 44.7986 725.509 422.633 231.144 191.489 313.916 302.876 129.335 842.647 271.096 1653.87 170.726 125.393 206.583 786.047 356.211 429.836
internal_count=24966 12851 12115 6675 4989 6176 1686 1012 4798 556 613 4242 9577 191 2608 1606 975 631 2538 1002 482 3076 839 6969 629 498 912 2851 1252 1599
is_linear=0
shrinkage=0.1


Tree=20
num_leaves=31
num_cat=0
split_feature=1 3 12 11 11 6 3 12 5 12 11 11 1 10 12 11 19 12 10 12 10 3 6 11 3 9 19 11 12 10
split_gain=129.176 226.648 122.12 127.479 82.2528 56.32 70.1136 35.0842 33.7794 34.3885 49.2334 33.7142 71.6902 36.8703 32.7718 32.3734 34.2468 31.1401 78.7336 40.367 42.7799 37.3932 36.1461 30.7063 30.5682 30.1026 29.8223 29.1114 32.6023 28.7742
threshold=0.85509736356160782 141.66932098765434 353.50000000000006 46.500000000000007 53.500000000000007 1.0000000180025095e-35 170.03296296296301 261.50000000000006 16117.352819316462 515.50000000000011 49.500000000000007 41.500000000000007 2.3477774615197124 26.350000000000005 239.50000000000003 47.500000000000007 6.9603378772735605 477.50000000000006 31.550000000000004 353.50000000000006 27.150000000000002 155.14006172839507 0.27777778357267385 51.500000000000007 178.34932098765435 1.2839498519897463 -7.5213594436645499 44.500000000000007 192.50000000000003 26.750000000000004
decision_type=2 2 10 8 10 2 2 8 2 10 10 10 2 10 10 10 2 10 10 10 10 2 2 10 2 2 2 10 8 8
left_child=4 8 5 -4 14 11 25 -6 9 10 29 12 -3 -14 27 17 -17 19 -19 20 22 -22 -16 -13 -21 -7 -10 -1 -29 -2
right_child=1 2 3 -5 7 6 -8 -9 26 -11 -12 23 13 -15 15 16 -18 18 -20 24 21 -23 -24 -25 -26 -27 -28 28 -30 -31
leaf_value=-0.022048423167962208 -0.055430257504301909 -0.15273964641125798 -0.083530041527121443 0.053633127219728433 -0.089968872256693685 -0.055147202914651805 -0.08157235643106675 -0.020531506749556797 -0.022629141217367529 0.024915358152844541 -0.08648267322442707 0.085201091040661925 -0.17787651104611493 0.066003259038919335 -0.0034371625708023317 -0.034744896893797776 0.023808501159511195 -0.020678876382360302 0.087463517653069089 -0.0031447028176496239 0.028276050595261667 -0.037537299371826607 0.063131657331060853 -0.055734945547083886 -0.084929418266050161 0.063779614052757547 0.032511840085771855 -0.08079508175601019 0.039969421888405313 -0.0028684797824395075
leaf_weight=114.63090219348669 122.9005975574255 17.402951925992966 123.32373781502247 147.4990957826376 142.54168839752674 22.664206236600876 51.072746649384499 158.66917410492897 124.94602986425161 215.87824825942516 96.729336343705654 874.45314538478851 5.3278830498456946 144.37819901108742 142.79687312245369 511.41955627501011 121.22051514685154 128.81484764814377 136.74560804665089 92.493555873632431 126.78433457016945 258.86137441545725 180.87587279081345 14.231004849076269 94.925502143800259 168.16311396658421 419.41266234219074 22.137584879994392 434.19585438817739 686.78786753118038
leaf_count=566 638 78 678 501 1406 79 202 1132 493 773 594 3708 22 572 649 2341 485 562 388 385 409 1190 554 56 517 483 1482 151 1380 2492
internal_value=0.0114857 0.0249199 0.0521918 -0.00853606 -0.00477565 0.0649392 0.0207346 -0.0539111 -0.000702006 -0.0106731 -0.0192774 0.0749434 0.0324729 0.0555376 0.00145784 -0.00513664 -0.0233478 0.00470129 0.0347512 -0.00411511 0.00668237 -0.0156248 0.0335349 0.0827717 -0.0453293 0.0489197 0.0196537 0.0223364 0.0337284 -0.0110286
internal_weight=5902.28 3235.17 1568.52 270.823 2667.11 1297.69 241.9 301.211 1666.65 1122.3 906.418 1055.79 167.109 149.706 2365.9 1794.94 632.64 1162.3 265.56 896.738 709.318 385.646 323.673 888.684 187.419 190.827 544.359 570.964 456.333 809.688
internal_count=24966 12851 6379 1179 12115 5200 764 2538 6472 4497 3724 4436 672 594 9577 7480 2826 4654 950 3704 2802 1599 1203 3764 902 562 1975 2097 1531 3130
is_linear=0
shrinkage=0.1


Tree=21
num_leaves=31
num_cat=0
split_feature=11 1 3 11 8 11 3 3 1 1 1 4 8 4 11 9 1 1 11 11 1 19 5 4 3 3 9 4 9 19
split_gain=110.2 77.2394 244.237 46.5119 46.4614 46.5458 42.2606 38.2457 43.9649 36.3393 36.259 56.0696 35.0199 32.9186 32.4082 32.0256 33.9585 42.3282 31.4489 28.4379 26.8126 26.491 33.2521 24.5942 24.0395 38.6491 37.7435 23.0206 32.8192 41.8345
threshold=50.500000000000007 1.5659833344975285 141.66932098765434 56.500000000000007 -0.041687011718749993 42.500000000000007 188.87327160493831 117.03339506172841 1.0737936262825232 2.0851324075360274 0.074996999999996664 89.979766845703139 1.0000000180025095e-35 89.995067596435561 42.500000000000007 10.679014205932619 2.7045752007288382 5.1636395411631613 45.500000000000007 41.500000000000007 1.3767619086221894 3.7084010839462285 5348.2314625325171 89.918487548828139 102.72479192675823 111.63629629629632 5.8518533706665048 89.990398406982436 2.975307941436768 -8.4174346923828107
decision_type=10 2 2 10 2 8 2 2 2 2 2 2 2 2 8 2 2 2 10 8 2 2 2 2 2 2 2 2 2 2
left_child=1 10 15 7 14 6 -6 13 21 -10 11 18 -7 -2 -4 16 24 -18 -1 20 -12 -9 -23 -5 26 -26 -3 -21 -29 -30
right_child=3 2 4 23 5 12 -8 8 9 -11 19 -13 -14 -15 -16 -17 17 -19 -20 27 -22 22 -24 -25 25 -27 -28 28 29 -31
leaf_value=-0.080950089264005834 -0.067925806960442342 -0.061961406389245577 0.075884523670546128 0.028248991504800341 0.043928328012125241 0.08973951596982005 -0.15242762556732622 -0.028584995478239689 0.052754705307860889 -0.10766770209945853 -0.011086188891789776 -0.061827457800777613 -0.050037040739333107 0.074358379997767551 -0.13042319930021831 0.10215755678614649 0.018601392063802819 -0.06225312476870884 0.068805711209100479 0.0047416163459435556 -0.1185516286060163 -0.059051260009205443 0.05894699597994002 -0.083342028870798862 0.078787499745886724 -0.030413363313534277 0.042506174644626908 0.037608651399046095 0.054007666885502098 -0.03564472430971867
leaf_weight=16.306811012327671 149.83076500892639 213.88517190515995 10.885318130254747 20.951323084533215 247.38816700875759 659.76199287176132 10.302166663110254 371.96248561143875 183.10680720210075 13.999230891466139 183.78513944894075 175.54303453862667 16.894452929496765 16.744079247117043 18.838925622403622 28.503623455762863 612.52618470788002 71.021907694637775 65.911851361393929 1386.8378072455525 26.196756720542908 31.556444734334946 84.217185027897358 141.85791616141796 47.487083360552788 95.914342373609543 39.308458611369133 626.74564828723669 76.135956540703773 157.64868429303169
leaf_count=97 909 874 32 162 1038 3016 50 2039 594 57 751 968 94 65 112 83 2222 422 298 5280 111 197 365 1332 141 378 119 2226 266 668
internal_value=0.0105046 0.0168587 0.0314018 -0.0193795 0.0681857 0.0721546 0.0351328 -0.00984101 0.000491709 0.0403701 0.00571226 -0.0298046 0.0860334 -0.0526683 -0.0516056 -0.000527802 -0.00342202 0.00997571 0.0372865 0.00948906 -0.0254656 -0.0154692 0.0256976 -0.0682865 -0.0267321 0.00535095 -0.0452459 0.0128094 0.0256748 -0.0059163
internal_weight=5802.06 4787.83 2072.72 1014.23 964.071 934.347 257.69 851.417 684.842 197.106 2715.11 257.762 676.656 166.575 29.7242 1108.65 1080.14 683.548 82.2187 2457.35 209.982 487.736 115.774 162.809 396.595 143.401 253.194 2247.37 860.53 233.785
internal_count=24966 19246 8581 5720 4342 4198 1088 4226 3252 651 10665 1363 3110 974 144 4239 4156 2644 395 9302 862 2601 562 1494 1512 519 993 8440 3160 934
is_linear=0
shrinkage=0.1


Tree=22
num_leaves=31
num_cat=0
split_feature=11 12 11 3 0 4 3 3 4 10 11 3 0 10 12 9 11 10 3 9 12 13 12 19 4 7 10 10 17 3
split_gain=91.202 80.8096 100.066 69.2448 48.9725 37.4691 31.5881 29.2934 37.3427 44.5777 29.2657 28.4116 34.5544 26.7518 39.9956 31.9288 67.36 45.0501 35.74 53.3636 35.3753 34.8754 26.6466 31.8735 24.1775 32.2764 23.9567 22.8876 50.4205 38.2692
threshold=54.500000000000007 303.50000000000006 49.500000000000007 271.3922222222223 0.0066369977025718509 1.0000000180025095e-35 205.29981481481482 106.37814814814816 89.995044708251967 27.550000000000004 45.500000000000007 136.59080246913584 0.23979596986978097 34.550000000000004 414.50000000000006 0.66666671633720409 45.500000000000007 19.850000000000005 102.72479192675823 8.3827161788940447 351.50000000000006 6.2698097229003915 443.50000000000006 -13.052502632141112 89.968978881835952 4.5183350225357971e-10 20.650000000000002 28.150000000000002 2.4683271646499638 207.90160493827162
decision_type=10 10 8 2 2 2 2 2 2 10 10 2 2 8 10 2 10 10 2 2 10 2 10 2 2 2 8 10 2 2
left_child=1 2 3 7 6 -6 -3 -1 -9 -10 -5 12 -4 15 -15 16 17 -7 21 -20 -18 -17 23 -8 -16 -26 -13 29 -29 -28
right_child=-2 4 11 10 5 13 22 8 9 -11 -12 26 -14 14 24 18 20 -19 19 -21 -22 -23 -24 -25 25 -27 27 28 -30 -31
leaf_value=0.011845840910296439 -0.04842236564641407 0.067278787216606351 -0.059587109692216235 -0.095884586821011863 0.063353216369989862 0.087025948249511875 0.087746143408801505 0.052956159000163344 0.06211320530059649 -0.067348647486369637 0.0013984512457468202 -0.049060036578527352 0.027662615211192634 -0.015778801812857332 -0.02023295263107042 0.021052261310033071 0.052605306008040323 -0.028558071013252407 -0.053311784428765809 0.031420979341978197 -0.00015964518866859041 -0.070563551943279221 0.12476885754970989 -0.10200037575055149 -0.088325187024550486 0.059187045130372852 0.046340382305430583 -0.12552085891976947 0.049848400309101475 -0.014733661266747007
leaf_weight=266.10166914016008 257.15852114930749 166.58453968167305 161.20806317031384 45.192095957696438 80.64417576789856 34.433543264865875 10.503216728568075 1355.1635943576694 47.298087477684021 57.71643603593111 87.575885199010372 65.696172334253788 60.562049955129623 252.79020995646715 56.865568459033966 221.69772788882256 261.97099325805902 589.71637420356274 476.72760409116745 85.76794146746397 238.5685448423028 49.946551628410816 9.1047291159629804 33.606096640229225 14.392036184668539 245.22506667673588 266.98334533721209 32.839308843016624 30.011343069374561 162.38401754945517
leaf_count=911 2304 695 847 265 324 138 33 5143 145 247 408 338 221 992 213 879 1211 2627 2261 384 1053 230 39 202 67 754 949 179 125 782
internal_value=0.0095857 0.0123408 0.0249254 0.0375375 0.000560729 -0.00322965 0.0458117 0.0429153 0.048497 -0.00806044 -0.0314368 -0.0050278 -0.0352944 -0.00541733 0.0135699 -0.0109905 0 -0.0218925 -0.0258027 -0.0401816 0.0273068 0.00364329 -0.0195469 -0.0536579 0.0373029 0.0503184 0.00686584 0.0146173 -0.0407462 0.0230296
internal_weight=5724.44 5467.28 2638.73 1859.05 2828.54 2608.75 219.799 1726.28 1460.18 105.015 132.768 779.684 221.77 2528.1 569.273 1958.83 1124.69 624.15 834.14 562.496 500.54 271.644 53.214 44.1093 316.483 259.617 557.914 492.218 62.8507 429.367
internal_count=24966 22662 10560 7119 12102 11133 969 6446 5535 392 673 3441 1068 10809 2026 8783 5029 2765 3754 2645 2264 1109 274 235 1034 821 2373 2035 304 1731
is_linear=0
shrinkage=0.1


Tree=23
num_leaves=31
num_cat=0
split_feature=1 3 12 11 11 1 12 1 1 12 2 12 7 9 1 10 7 11 1 6 12 11 11 12 10 11 12 10 14 12
split_gain=84.8588 148.878 101.032 101.335 50.4473 39.0028 35.1199 33.2017 32.7968 32.2 31.6406 30.6756 29.8324 27.6654 25.2069 26.514 23.2887 23.2809 22.8461 53.4408 49.6159 41.9666 36.6165 34.6007 32.1917 31.4502 48.2033 23.5268 31.8664 21.6886
threshold=0.85509736356160782 141.66932098765434 325.50000000000006 45.500000000000007 53.500000000000007 1.4269152403902621 261.50000000000006 2.4127585509043699 1.6456670681676608 239.50000000000003 336.14067656181049 885.50000000000011 2.0631048677004404e-09 1.1358024477958681 5.1636395411631613 22.050000000000004 3.6816980056732613e-10 42.500000000000007 2.7045752007288382 0.27777778357267385 287.50000000000006 47.500000000000007 39.500000000000007 696.50000000000011 28.850000000000005 43.500000000000007 657.50000000000011 28.250000000000004 1.3876751065254214 234.50000000000003
decision_type=2 2 8 8 10 2 8 2 2 10 2 10 2 2 2 8 2 8 2 2 8 10 10 10 10 10 10 10 2 10
left_child=4 14 5 10 11 9 -6 8 16 -3 -4 29 17 -10 15 -2 -5 -7 19 25 22 24 -20 -23 -21 26 -17 28 -22 -1
right_child=1 2 3 7 6 12 -8 -9 13 -11 -12 -13 -14 -15 -16 18 -18 -19 20 21 27 23 -24 -25 -26 -27 -28 -29 -30 -31
leaf_value=0.020180894039260506 -0.05071132308208514 0.06976123097095667 0.028517415634102972 0.12182252643033152 -0.084399399686487492 0.078721296783814065 -0.011311058818912862 -0.17580155943484502 0.091061858436172566 -0.0050885545144187631 -0.085473652204914041 -0.079827414676915925 0.07612178271453035 -0.1085350089843439 -0.059037246721045537 -0.037549919060231529 -0.0088165576576333064 -0.081001794219364709 -0.099451367658994441 -0.0093408362295944874 -0.0049677809074358892 -0.054311132969635328 0.100912507528719 0.070936268003152211 0.046927897903068297 -0.088810160427702178 0.1092869439009552 -0.0097268848915826843 0.074279917131524389 -0.0032637480394614796
leaf_weight=504.85667967796326 88.071124941110611 93.153292179107666 28.345020599663258 14.541613295674322 123.91291509568691 13.995116278529165 147.32247075438499 5.8032218590378752 125.24998885393143 141.57779537141323 121.76874222606421 45.882269620895386 734.91381997615099 6.0787882134318343 69.238809190690517 156.68356674909592 105.46150259673595 21.570306569337845 8.7706445157527906 151.40090945363045 99.239248484373093 128.41780105978251 96.344593107700348 25.078674957156181 291.30200167000294 92.639840133488178 24.858176678419113 314.32438921928406 98.114112466573715 1778.8074597939849
leaf_count=1910 513 314 146 38 1406 41 1132 28 535 512 659 228 3594 27 429 640 407 78 37 590 406 709 305 70 858 381 63 1122 349 7439
internal_value=0.00872455 0.0200242 0.0438246 0.00154389 -0.00452111 0.0608362 -0.0452559 0.039851 0.0459037 0.0243614 -0.0632414 0.000196223 0.0717729 0.0803171 -0.000371617 0.00217937 0.00706341 -0.0149814 0.00541075 -0.00493074 0.0201502 0.0117459 0.0824724 -0.0328739 0.0274814 -0.0414679 -0.0164074 0.00701629 0.0341019 0.00188203
internal_weight=5657.72 3056.94 1412.46 407.249 2600.78 1005.21 271.235 257.135 251.332 234.731 150.114 2329.55 770.479 131.329 1644.48 1575.25 120.003 35.5654 1487.17 870.381 616.793 596.199 105.115 153.496 442.703 274.182 181.542 511.678 197.353 2283.66
internal_count=24966 12851 6379 1840 12115 4539 2538 1035 1007 826 805 9577 3713 562 6472 6043 445 119 5530 3311 2219 2227 342 779 1448 1084 703 1877 755 9349
is_linear=0
shrinkage=0.1


Tree=24
num_leaves=31
num_cat=0
split_feature=1 3 1 8 10 11 11 11 10 3 11 3 1 11 11 8 6 3 11 3 10 13 10 1 4 3 3 1 8 13
split_gain=72.8935 101.288 85.6908 47.6474 47.4025 38.4186 36.818 45.1729 57.478 58.9911 36.7694 36.192 33.5654 31.7795 42.9359 31.3962 30.051 75.2041 37.1939 31.9049 29.6915 32.7533 28.7261 26.9765 26.4432 24.4184 24.0851 23.743 32.2719 30.0784
threshold=0.45618894148480232 141.66932098765434 1.5092855109769594 -0.041687011718749993 17.350000000000005 52.500000000000007 50.500000000000007 42.500000000000007 31.450000000000003 163.33518518518522 49.500000000000007 196.89839506172842 2.0851324075360274 53.500000000000007 44.500000000000007 1.0000000180025095e-35 0.27777778357267385 254.88493827160497 51.500000000000007 311.76796296296305 23.750000000000004 6.2698097229003915 34.95000000000001 1.2208627082457053 89.995067596435561 131.63944444444448 188.87327160493831 2.7045752007288382 1.0000000180025095e-35 1.0379549860954287
decision_type=2 2 2 2 10 10 10 8 10 2 10 2 2 8 10 2 2 2 10 2 10 2 10 2 2 2 2 2 2 2
left_child=13 10 4 -4 -3 -6 7 8 9 -5 23 -7 -8 14 -1 22 17 -16 -18 20 -19 -22 -9 -2 25 -12 -20 28 -25 -30
right_child=1 2 3 6 5 11 12 15 -10 -11 24 -13 -14 -15 16 -17 18 19 26 -21 21 -23 -24 27 -26 -27 -28 -29 29 -31
leaf_value=-0.038227363444424393 0.024876094239485284 0.088935727743491136 -0.046931480554238569 0.017749804523282491 -0.0054681870478853921 0.07091143719241999 0.0073144156327376187 0.087792767479695819 0.070249496953417881 -0.14478504990401087 -0.05909855256764332 -0.098833915650503715 -0.2268630861749443 -0.04162372542160802 -0.060219680956604196 -0.048322307672221912 0.024809416804195489 0.07843448478941685 0.01612586533524964 -0.033723012976674759 -0.038680283970403573 0.089101283144222124 -0.0060260978289045624 -0.03443689547472413 0.086477919487152721 0.02960050899363725 -0.087590911977461813 0.0098854496437911343 -0.014100288459329225 0.070605496022528066
leaf_weight=284.23540855944157 498.33270157128572 70.405246675014496 42.517472848296165 77.793985731899738 694.54614786803722 119.03982651233673 29.696548104286194 551.44601568579674 132.80629039555788 29.811657793819904 193.06671515107155 12.69083037227392 6.4717814773321143 250.29579639062285 207.13520984351635 17.372558288276196 689.47422514855862 101.36426793038845 36.278824634850025 77.633098967373371 64.77586954087019 27.860115751624107 32.444038175046444 379.73526036739349 14.977729834616182 34.692316390573978 51.218813426792622 673.53338029980659 110.13616486638784 65.182906739413738
leaf_count=1346 1768 250 197 358 2665 448 118 2944 590 158 1319 88 30 2250 961 102 2492 343 160 467 362 124 177 1479 60 142 307 2635 423 203
internal_value=0.00797057 0.0158395 0.0328606 0.0543065 0.0107011 0.00381457 0.0593715 0.0636649 0.0262511 -0.0272775 7.7724e-05 0.0531835 -0.036874 -0.00861711 -0.00316405 0.0783901 0.00471702 -0.0148602 0.0169126 0.0194561 0.0413134 0 0.0824073 0.00525719 -0.036231 -0.0450804 -0.0437609 -0.00263296 -0.0179938 0.0170476
internal_weight=5576.97 3786.7 1817.04 920.36 896.682 826.277 877.843 841.675 240.412 107.606 1969.66 131.731 36.1683 1790.27 1539.98 601.263 1255.74 478.769 776.972 271.633 194 92.636 583.89 1726.92 242.737 227.759 87.4976 1228.59 555.054 175.319
internal_count=24966 16154 8125 4674 3451 3201 4477 4329 1106 516 8029 536 148 8812 6562 3223 5216 2257 2959 1296 829 486 3121 6508 1521 1461 467 4740 2105 626
is_linear=0
shrinkage=0.1


Tree=25
num_leaves=31
num_cat=0
split_feature=1 3 1 5 9 10 10 15 4 1 6 3 1 4 5 9 10 2 15 2 1 17 17 3 3 2 3 3 1 17
split_gain=60.3197 85.5223 76.634 47.48 44.3726 47.5967 44.0979 32.9203 28.7307 27.8586 26.8283 77.0876 40.7706 26.2126 25.5014 24.6363 31.1533 22.8853 25.3315 21.6288 21.5145 31.7244 21.9451 21.0884 28.9829 26.8427 20.2331 20.1607 20.1036 50.7195
threshold=0.45618894148480232 141.66932098765434 1.4269152403902621 14655.427205720849 0.61728498339653026 30.750000000000004 17.350000000000005 -22.445605278015133 89.992324829101577 0.97496099999999786 0.27777778357267385 254.88493827160497 0.074997000000001604 89.996231079101577 7603.0723746655085 3.0370366573333745 23.450000000000003 2714.9417312851288 10.620255947113039 965.48511694221429 0.14999400000000354 -1.0705875158309934 12.739806175231935 30.790710084354938 102.72479192675823 345.66515010413542 190.93506172839508 230.65759259259264 2.477739582004872 10.161373138427736
decision_type=2 2 2 2 2 10 10 2 2 2 2 2 2 2 2 2 10 2 2 2 2 2 2 2 2 2 2 2 2 2
left_child=10 3 6 8 28 19 26 -5 -2 -9 11 13 -12 -1 -13 16 -14 -16 -19 -6 21 27 -23 -11 -25 -26 -3 -17 -4 -30
right_child=1 2 4 7 5 -7 -8 9 -10 23 12 14 15 -15 17 20 -18 18 -20 -21 -22 22 -24 24 25 -27 -28 -29 29 -31
leaf_value=-0.065982752848966014 -0.019595471131747557 -0.029523216821952403 0.069034618443963899 -0.10979246490356312 0.011079253670867518 0.078536479870059517 0.0010402164232276648 0.058363318452745366 0.02174919087341921 0.052967690262971816 -0.034948611630905645 -0.022342078575048968 -0.0085868895729196617 0.022146909698960812 0.014970049624991613 0.0099058834679906973 0.041776081570174178 0.13159505335557276 -0.073222701028737611 -0.097324599432186146 -0.024384601181478824 -0.056175217256301035 0.12962706850670222 -0.019400390343704221 -0.047062168473699789 0.044299270998128783 0.10960294594609521 0.18207436832741741 0.042043649471680329 -0.22384297569289813
leaf_weight=309.92325344309211 983.0084744989872 11.046034291386603 556.51651159673929 18.059462331235409 27.341516830027103 39.304709084331989 761.83305920660496 169.39088605344296 199.70077431946993 103.39455662667751 234.81273905560374 136.9597554281354 180.45698907226324 35.548031184822321 158.44088052585721 13.113300234079363 363.08705316111445 35.489991024136543 5.8962456509470931 46.254998035728931 243.38366663455963 32.386887658387423 6.6902889609336844 260.45476137846708 36.678160555660725 193.33775854855776 56.10760360956192 17.23074908554554 267.54595206677914 6.2852521315217009
leaf_count=1775 4429 54 3040 85 118 121 2937 575 722 307 1375 837 799 185 840 69 1288 123 38 245 1198 193 30 1083 156 672 193 62 1382 35
internal_value=0.00727323 0.0144901 0.0304106 6.51296e-05 0.0499107 -0.00807437 0.00806885 0.0192314 -0.0125175 0.0225547 -0.00787452 -0.0234241 0.00176894 -0.0565881 0.0103659 0.0119826 0.0248868 0.0332813 0.0990166 -0.0561028 -0.0101295 0.038064 -0.0194287 0.0120918 0.00318123 0.0291573 0.0851535 0.113551 0.0579154 0.0347846
internal_weight=5509.68 3736.26 1772.24 1964.02 943.249 112.901 828.987 781.316 1182.71 763.256 1773.42 682.258 1091.16 345.471 336.787 856.349 543.544 199.827 41.3862 73.5965 312.805 69.4212 39.0772 593.865 490.471 230.016 67.1536 30.344 830.348 273.831
internal_count=24966 16154 8125 8029 4941 484 3184 2878 5151 2793 8812 3798 5014 1960 1838 3639 2087 1001 161 363 1552 354 223 2218 1911 828 247 131 4457 1417
is_linear=0
shrinkage=0.1


Tree=26
num_leaves=31
num_cat=0
split_feature=12 12 11 3 11 5 4 3 11 11 11 12 9 11 9 4 12 2 19 10 5 3 2 3 12 3 4 3 3 9
split_gain=62.9513 51.334 80.2386 46.8938 30.366 28.3955 34.1283 30.7202 28.4103 24.8654 24.1151 28.6264 23.8549 23.6744 23.5067 23.4205 30.4219 22.7548 22.6633 26.1992 23.8265 20.9555 19.831 19.8211 18.595 23.7055 28.087 19.0824 22.1128 18.9092
threshold=192.50000000000003 303.50000000000006 49.500000000000007 271.3922222222223 56.500000000000007 469.14729030115069 1.0000000180025095e-35 40.567037037037046 50.500000000000007 45.500000000000007 39.500000000000007 240.50000000000003 2.8518515825271611 47.500000000000007 7.0493834018707284 89.974815368652358 270.50000000000006 3513.3665034263863 -13.052502632141112 22.650000000000002 6304.0834347596056 131.63944444444448 4905.4361803392858 65.880864197530883 240.50000000000003 171.57092592592593 89.994060516357436 117.03339506172841 121.50574074074076 1.3086416125297549
decision_type=8 10 8 2 10 2 2 2 10 10 10 10 2 8 2 2 10 2 2 8 2 2 2 2 10 2 2 2 2 2
left_child=-1 2 3 10 23 8 -7 13 12 -5 11 -2 -3 17 -12 16 -11 -8 19 -9 -20 -21 -16 -4 25 29 -27 -26 -29 -25
right_child=1 5 4 9 -6 6 7 18 -10 15 14 -13 -14 -15 22 -17 -18 -19 20 21 -22 -23 -24 24 27 26 -28 28 -30 -31
leaf_value=-0.089655745459518238 0.095705208478723935 0.066402216156366697 -0.037266401146659883 -0.090148343256479205 -0.074973354747188872 0.059323087927415565 0.05160862839620739 -0.11525656983136241 -0.042194028755015614 -0.025611212133164404 0.039203648192344766 -0.091539877752293969 -0.026089575111530833 -0.012244967494096027 -0.049966810763983717 -0.029803291326823734 0.18551545701153294 -0.10047245756174235 -0.037780281753765008 -0.017474154366620764 -0.0089465909110028521 0.05167641385590737 0.12009242502519901 -0.0065251948156193687 -0.099220678767294734 -0.024456212637065402 0.067294008412510417 0.17618414428097726 -0.010245863608798882 0.067304102869102947
leaf_weight=65.904860801994801 9.8327169567346555 150.27093880623579 130.77323272079229 41.601886935532093 60.548953834921122 79.939985036849976 188.43767857551575 12.117727123200892 39.334586836397648 11.652323096990587 1521.1747574210167 29.26371706277132 31.882944598793983 118.14550042152405 48.620504930615425 60.723104245960712 12.824054419994352 9.0486782640218717 352.172134578228 61.277427271008492 1627.3228833675385 135.46091435849667 6.7443840801715842 44.29986597597599 22.959971733391285 147.40882333740592 41.900647677481174 5.4901417195796958 257.92855603992939 125.54420949518681
leaf_count=790 41 706 634 261 649 346 554 72 279 50 6062 128 144 533 188 295 49 37 1794 259 7500 567 17 205 165 753 172 24 1236 456
internal_value=0.00663219 0.00784568 0.0180286 0.0302577 -0.0073202 -0.00148396 -0.00446804 -0.00656737 0.032743 -0.0276954 0.0348822 -0.0407415 0.0496131 0.022449 0.0368456 0.0023316 0.0840204 0.0436655 -0.0108065 0.0202599 -0.0141434 0.0296532 -0.0257135 -0.00182519 0.00524642 0.0204879 -0.0033764 -0.0135251 -0.00533051 0.0475366
internal_weight=5450.61 5384.7 2579.29 1742.44 836.854 2805.41 2583.92 2503.98 221.488 126.801 1615.64 39.0964 182.154 315.632 1576.54 85.1995 24.4764 197.486 2188.35 208.856 1979.5 196.738 55.3649 776.305 645.532 359.154 189.309 286.379 263.419 169.844
internal_count=24966 24176 11385 7091 4294 12791 11662 11316 1129 655 6436 169 850 1124 6267 394 99 591 10192 898 9294 826 205 3645 3011 1586 925 1425 1260 661
is_linear=0
shrinkage=0.1


Tree=27
num_leaves=31
num_cat=0
split_feature=12 12 1 11 0 12 9 10 1 19 17 1 9 1 1 0 4 0 11 10 9 1 10 12 1 9 11 10 9 17
split_gain=54.5983 42.1315 82.6795 37.1319 33.3491 33.2417 51.7276 51.3212 28.6325 27.0096 26.8869 31.9114 26.1265 36.3058 27.3228 23.1526 27.7162 24.3034 23.3888 22.2478 22.0993 23.2222 20.4473 27.7928 29.3978 21.5597 48.9253 26.4377 19.6661 19.4272
threshold=192.50000000000003 303.50000000000006 1.1666795199102487 53.500000000000007 0.31642725949181855 234.50000000000003 0.39506179094314581 20.350000000000005 0.074996999999998218 14.169379711151125 10.161373138427736 2.3916871365529833 2.975307941436768 0.74996999999999825 0.91545505151317597 0.0066369977025718509 1.0000000180025095e-35 0.027596929471667971 50.500000000000007 31.350000000000005 2.4444432258605961 5.2908771365774827 34.550000000000004 406.50000000000006 3.4518991440432867 0.66666671633720409 41.500000000000007 24.450000000000003 2.8518515825271611 2.0959330797195439
decision_type=8 10 2 8 2 10 2 10 2 2 2 2 2 2 2 2 2 2 10 8 2 2 8 10 2 2 10 10 2 2
left_child=-1 2 3 5 -5 -2 7 -7 -9 10 20 19 13 -8 -14 18 -17 29 28 -12 21 -4 25 -24 -25 26 -19 -27 -3 -18
right_child=1 15 9 4 -6 6 12 8 -10 -11 11 -13 14 -15 -16 16 17 22 -20 -21 -22 -23 23 24 -26 27 -28 -29 -30 -31
leaf_value=-0.086797688753552135 0.030503461092008455 0.060382482479392666 0.055853047787080327 -0.04487368039088175 0.11154371154236525 0.062921825284348074 0.046636979436574959 0.0094628723560414591 -0.067291878128759336 -0.025685004486843591 0.06073391676407295 -0.13658161565881854 -0.038780635270691581 -0.033152162506304109 0.057315517356741653 0.053364240346178753 -0.11573512010984216 -0.032651158509842924 -0.038981881767331139 -0.061944619966300477 0.0077478709872849374 -0.089755815705878483 -0.013435476392612763 0.041574768634130656 -0.057896949702434398 -0.049244037918898698 0.01440037243325344 -0.0095154927560988992 -0.023766443861680003 -0.0093104785079605266
leaf_weight=61.528311628848314 440.22174963355064 148.9018619582057 753.53516582399607 219.40780944004655 13.259838454425333 44.656687319278717 292.20020046830177 59.140145808458328 220.85603885352612 59.624724604189396 42.307561688125134 15.629907637834547 128.08386709541082 68.526420928537846 36.828948587179184 80.083165809512138 34.82989227771759 315.14623986929655 38.448644801974297 20.923840180039406 127.41591441631317 9.732494965195654 234.07074824720621 293.0868926346302 31.385658442974091 241.29392052441835 733.10273622721434 574.38573949038982 31.612080998718739 37.577775686979294
leaf_count=790 1469 706 3585 1800 43 154 901 335 1025 267 219 70 548 242 110 346 197 1506 279 86 468 63 954 986 130 1305 3507 2541 144 190
internal_value=0.00598821 0.00709079 0.016379 0.00151092 -0.0350922 0.00820962 -0.00323738 -0.0346602 -0.0507481 0.038264 0.0423222 -0.0125113 0.0160095 0.0311534 -0.0165012 -0.00136138 -0.00405423 -0.00595801 0.0297259 0.0182492 0.0472979 0.0537505 -0.0041942 0.0124982 0.0314975 -0.00925387 0.000141827 -0.0214363 0.0450454 -0.0627449
internal_weight=5407.8 5346.28 2552.35 1523.18 232.668 1290.51 850.292 324.653 279.996 1029.17 969.545 78.8613 525.639 360.727 164.913 2793.93 2574.96 2494.88 218.963 63.2314 890.684 763.268 2422.47 558.543 324.473 1863.93 1048.25 815.68 180.514 72.4077
internal_count=24966 24176 11385 6627 1843 4784 3315 1514 1360 4758 4491 375 1801 1143 658 12791 11662 11316 1129 305 4116 3648 10929 2070 1116 8859 5013 3846 850 387
is_linear=0
shrinkage=0.1


Tree=28
num_leaves=31
num_cat=0
split_feature=11 1 3 1 0 10 11 11 11 3 6 1 17 3 1 2 11 15 18 6 3 11 11 11 4 3 10 10 3 10
split_gain=44.5035 37.0492 56.9446 58.101 34.1734 32.5391 39.2223 30.8137 36.7376 82.1971 75.0475 37.6307 33.6212 30.6857 29.965 28.9447 26.0451 23.2353 22.8177 21.6868 45.1532 35.6721 30.653 28.1428 43.3861 27.8867 21.8561 45.026 29.821 39.7277
threshold=57.500000000000007 0.45618894148480232 141.66932098765434 1.5659833344975285 0.23295815742413942 17.350000000000005 52.500000000000007 50.500000000000007 44.500000000000007 188.87327160493831 0.6111111342906953 2.5210596006778538 9.686927795410158 203.67814814814818 3.1650155712142971 1034.0307628626745 44.500000000000007 2.6316184997558598 -8.0093662738800031 0.7222222387790681 254.88493827160497 51.500000000000007 45.500000000000007 47.500000000000007 89.994564056396499 188.87327160493831 28.250000000000004 33.150000000000013 198.41993827160496 25.750000000000004
decision_type=10 2 2 2 2 10 10 10 8 2 2 2 2 2 2 2 8 2 2 2 2 10 10 8 2 2 10 10 2 10
left_child=1 16 4 5 -3 -4 17 8 9 12 11 -10 -5 -8 -11 -9 -1 -7 -6 20 23 26 -22 24 -18 -23 28 -28 -21 -30
right_child=-2 2 3 7 18 6 13 15 10 14 -12 -13 -14 -15 -16 -17 19 -19 -20 21 22 25 -24 -25 -26 -27 27 -29 29 -31
leaf_value=-0.033677192020303663 -0.059656174005134358 -0.0086110787234191591 0.077362886797518238 0.043654153536549306 -0.082822459814110336 0.010225979856104269 0.070533946826396118 0.062789561064323957 0.089133322223822434 -0.28641087627470568 -0.10705069672860323 -0.090031595297174111 -0.11419146969153225 -0.10579122076867778 0.027350621646233961 -0.095087348382512968 -0.046518579227623653 -0.026026893595292061 0.023650875934883946 0.062093475333904802 -0.10158054906370094 0.01665372531048688 0.019874348268274198 -0.065304568402279259 0.10908097213052188 -0.069079689149495957 -0.046772114964937203 0.034731077107355061 -0.024634346568130461 0.07272768654841541
